{"learner":{"attributes":{"scikit_learn":"{\"_estimator_type\": \"ranker\"}"},"feature_names":["ideal_lap_delta","base_pace_delta","stint_slope","stint_variance","team_strength","reliability","constructor_maturity","is_rookie","sunday_conversion_factor","track_temp","is_sprint","has_long_stint"],"feature_types":["float","float","float","float","float","float","float","int","float","float","int","int"],"gradient_booster":{"model":{"cats":{"enc":[],"feature_segments":[],"sorted_idx":[]},"gbtree_model_param":{"num_parallel_tree":"1","num_trees":"100"},"iteration_indptr":[0,1,2,3,4,5,6,7,8,9,10,11,12,13,14,15,16,17,18,19,20,21,22,23,24,25,26,27,28,29,30,31,32,33,34,35,36,37,38,39,40,41,42,43,44,45,46,47,48,49,50,51,52,53,54,55,56,57,58,59,60,61,62,63,64,65,66,67,68,69,70,71,72,73,74,75,76,77,78,79,80,81,82,83,84,85,86,87,88,89,90,91,92,93,94,95,96,97,98,99,100],"tree_info":[0,0,0,0,0,0,0,0,0,0,0,0,0,0,0,0,0,0,0,0,0,0,0,0,0,0,0,0,0,0,0,0,0,0,0,0,0,0,0,0,0,0,0,0,0,0,0,0,0,0,0,0,0,0,0,0,0,0,0,0,0,0,0,0,0,0,0,0,0,0,0,0,0,0,0,0,0,0,0,0,0,0,0,0,0,0,0,0,0,0,0,0,0,0,0,0,0,0,0,0],"trees":[{"base_weights":[-2.8994305E-9,-9.2178784E-2,4.8584303E-1,1.1031512E-1,7.11808E-1,7.971462E-2,-1.96701E-1,8.124721E-2,3.0151856E-1,1.5431406E-1,-6.488278E-2,-1.731372E-2,5.6174792E-2,-5.190791E-2,4.2667087E-2],"categories":[],"categories_nodes":[],"categories_segments":[],"categories_sizes":[],"default_left":[0,0,0,0,0,0,0,0,0,0,0,0,0,0,0],"id":0,"left_children":[1,-1,3,5,7,-1,9,-1,11,13,-1,-1,-1,-1,-1],"loss_changes":[4.9833862E1,0E0,6.1048164E0,6.1788087E0,1.6264038E0,0E0,3.359596E0,0E0,1.3962877E0,2.490131E0,0E0,0E0,0E0,0E0,0E0],"parents":[2147483647,0,0,2,2,3,3,4,4,6,6,8,8,9,9],"right_children":[2,-1,4,6,8,-1,10,-1,12,14,-1,-1,-1,-1,-1],"split_conditions":[1.3098574E0,-9.2178784E-2,1.7598239E0,1.4852144E-1,7.844476E-1,7.971462E-2,5.708756E-1,8.124721E-2,2.02522E0,7.187561E-2,-6.488278E-2,-1.731372E-2,5.6174792E-2,-5.190791E-2,4.2667087E-2],"split_indices":[1,0,1,5,5,0,4,0,1,2,0,0,0,0,0],"split_type":[0,0,0,0,0,0,0,0,0,0,0,0,0,0,0],"sum_hessian":[1.09274994E2,3.7406506E1,7.186849E1,2.7558167E1,4.431032E1,8.020017E0,1.9538149E1,3.4793526E1,9.516798E0,1.1369764E1,8.168385E0,3.488494E0,6.028304E0,3.013387E0,8.356378E0],"tree_param":{"num_deleted":"0","num_feature":"12","num_nodes":"15","size_leaf_vector":"1"}},{"base_weights":[-1.2384241E-9,-6.8743837E-1,2.5382808E-1,-8.432938E-1,-2.9168743E-1,6.771588E-1,-4.2499015E-3,-3.4141216E-2,-8.875928E-2,-5.6505877E-1,4.4827934E-2,7.5792444E-1,1.5957657E-2,-4.9690017E-1,2.4356563E-1,3.7802998E-2,-6.316162E-2,-2.5512034E-2,7.854446E-2,4.256278E-2,-3.7520282E-2,-6.441608E-1,5.735698E-1,-1.907201E-2,5.603657E-1,-7.309439E-2,-4.922863E-3,7.4804164E-2,-3.3443782E-2,-1.2900415E-1,6.4382243E-1,7.189583E-1,2.111414E-3,2.7815618E-3,-4.884672E-2,-1.8293934E-2,7.859829E-2,-2.9474959E-2,7.639159E-2,-2.6266385E-2,6.810227E-2],"categories":[],"categories_nodes":[],"categories_segments":[],"categories_sizes":[],"default_left":[0,0,0,0,0,0,0,0,0,0,0,0,0,0,0,0,0,0,0,0,0,0,0,0,0,0,0,0,0,0,0,0,0,0,0,0,0,0,0,0,0],"id":1,"left_children":[1,3,5,7,9,11,13,-1,-1,15,-1,17,19,21,23,-1,-1,-1,-1,-1,-1,25,27,29,31,-1,-1,-1,-1,33,35,37,39,-1,-1,-1,-1,-1,-1,-1,-1],"loss_changes":[5.8231693E1,5.3048363E0,2.663084E1,1.1207047E0,5.7062025E0,4.9178276E0,1.8728504E1,0E0,0E0,1.5021133E0,0E0,2.4933357E0,1.9337068E0,8.462228E0,8.503679E0,0E0,0E0,0E0,0E0,0E0,0E0,2.3183632E0,1.3175015E0,4.220455E0,4.097621E0,0E0,0E0,0E0,0E0,2.8057594E0,1.1126113E0,1.8682632E0,2.2004688E0,0E0,0E0,0E0,0E0,0E0,0E0,0E0,0E0],"parents":[2147483647,0,0,1,1,2,2,3,3,4,4,5,5,6,6,9,9,11,11,12,12,13,13,14,14,21,21,22,22,23,23,24,24,29,29,30,30,31,31,32,32],"right_children":[2,4,6,8,10,12,14,-1,-1,16,-1,18,20,22,24,-1,-1,-1,-1,-1,-1,26,28,30,32,-1,-1,-1,-1,34,36,38,40,-1,-1,-1,-1,-1,-1,-1,-1],"split_conditions":[1.3159369E0,1.2816544E0,5.1810074E-1,1.4273722E-1,1.20028205E-1,4.760551E-1,6.1234266E-2,-3.4141216E-2,-8.875928E-2,1.11272156E-1,4.4827934E-2,-1.8307904E-2,1.5265707E0,2.3145375E0,2.020044E0,3.7802998E-2,-6.316162E-2,-2.5512034E-2,7.854446E-2,4.256278E-2,-3.7520282E-2,1.9274384E0,3.2734763E-2,1.4267218E-1,7.5248265E-1,-7.309439E-2,-4.922863E-3,7.4804164E-2,-3.3443782E-2,6.2551224E-1,1.7325308E0,2.99576E-2,1.9402127E0,2.7815618E-3,-4.884672E-2,-1.8293934E-2,7.859829E-2,-2.9474959E-2,7.639159E-2,-2.6266385E-2,6.810227E-2],"split_indices":[0,1,5,5,2,3,2,0,0,4,0,8,0,1,1,0,0,0,0,0,0,0,2,2,4,0,0,0,0,4,1,3,0,0,0,0,0,0,0,0,0],"split_type":[0,0,0,0,0,0,0,0,0,0,0,0,0,0,0,0,0,0,0,0,0,0,0,0,0,0,0,0,0,0,0,0,0,0,0,0,0,0,0,0,0],"sum_hessian":[3.3172287E2,8.89939E1,2.4272897E2,6.3037483E1,2.5956419E1,9.13166E1,1.5141237E2,5.8189683E0,5.7218513E1,1.9126682E1,6.8297367E0,8.124611E1,1.007049E1,5.0337574E1,1.010748E2,9.5236355E-1,1.8174318E1,1.930013E0,7.931609E1,4.8758254E0,5.1946645E0,4.4600315E1,5.737258E0,5.5775158E1,4.529964E1,3.8723133E1,5.877183E0,4.9603157E0,7.769423E-1,4.8532146E1,7.243012E0,3.5053528E1,1.0246111E1,3.443299E1,1.4099156E1,1.0206094E0,6.2224026E0,1.252644E0,3.3800884E1,7.812391E0,2.4337206E0],"tree_param":{"num_deleted":"0","num_feature":"12","num_nodes":"41","size_leaf_vector":"1"}},{"base_weights":[4.134731E-9,-6.7018515E-1,3.3829287E-1,-7.701061E-1,-8.880263E-2,5.4511573E-2,4.9174884E-1,-3.0207396E-2,-8.191291E-2,-5.9314646E-2,4.4823416E-2,4.1147798E-1,-2.484079E-1,5.535786E-1,-3.7209783E-2,2.2634682E-1,8.134178E-2,-5.0067026E-2,1.0554124E-1,7.138496E-1,3.2129154E-1,-3.881223E-2,6.4317904E-2,4.006386E-1,-8.770232E-2,-3.1169727E-2,2.9354159E-2,3.5258776E-1,7.724842E-2,-5.390187E-2,4.4135907E-1,4.8204087E-2,-3.5281118E-2,-2.9947862E-2,3.72522E-2,-1.525448E-2,6.5126896E-2,6.551006E-2,1.35313785E-2],"categories":[],"categories_nodes":[],"categories_segments":[],"categories_sizes":[],"default_left":[0,0,0,0,0,0,0,0,0,0,0,0,0,0,0,0,0,0,0,0,0,0,0,0,0,0,0,0,0,0,0,0,0,0,0,0,0,0,0],"id":2,"left_children":[1,3,5,7,9,11,13,-1,-1,-1,-1,15,17,19,21,23,-1,-1,25,27,29,-1,-1,31,33,-1,-1,35,-1,-1,37,-1,-1,-1,-1,-1,-1,-1,-1],"loss_changes":[6.7705414E1,5.7510376E0,8.61554E0,1.7109451E0,4.551341E0,7.7553916E0,4.2291203E0,0E0,0E0,0E0,0E0,2.2615066E0,3.527045E0,4.0622215E0,3.6887279E0,1.3426447E0,0E0,0E0,1.426367E0,1.1551857E0,5.287226E0,0E0,0E0,1.1232665E0,1.0224646E0,0E0,0E0,1.7967526E0,0E0,0E0,2.7533274E0,0E0,0E0,0E0,0E0,0E0,0E0,0E0,0E0],"parents":[2147483647,0,0,1,1,2,2,3,3,4,4,5,5,6,6,11,11,12,12,13,13,14,14,15,15,18,18,19,19,20,20,23,23,24,24,27,27,30,30],"right_children":[2,4,6,8,10,12,14,-1,-1,-1,-1,16,18,20,22,24,-1,-1,26,28,30,-1,-1,32,34,-1,-1,36,-1,-1,38,-1,-1,-1,-1,-1,-1,-1,-1],"split_conditions":[1.3159369E0,1.3939866E0,1.8329767E0,1.4273722E-1,1.11666985E-1,1.4852144E-1,8.860211E-1,-3.0207396E-2,-8.191291E-2,-5.9314646E-2,4.4823416E-2,1.2275416E-1,1.04631275E-1,5.566751E-1,1.4267218E-1,1.5697775E0,8.134178E-2,-5.0067026E-2,1.6510357E0,2.7194323E-2,1.6366682E0,-3.881223E-2,6.4317904E-2,1.6328751E0,4.1279042E-1,-3.1169727E-2,2.9354159E-2,3.7736574E-1,7.724842E-2,-5.390187E-2,5.472056E-1,4.8204087E-2,-3.5281118E-2,-2.9947862E-2,3.72522E-2,-1.525448E-2,6.5126896E-2,6.551006E-2,1.35313785E-2],"split_indices":[0,1,1,5,2,5,5,0,0,0,0,2,2,4,2,1,0,0,1,2,0,0,0,0,3,0,0,3,0,0,5,0,0,0,0,0,0,0,0],"split_type":[0,0,0,0,0,0,0,0,0,0,0,0,0,0,0,0,0,0,0,0,0,0,0,0,0,0,0,0,0,0,0,0,0,0,0,0,0,0,0],"sum_hessian":[2.9663156E2,9.917564E1,1.9745593E2,8.435339E1,1.4822239E1,6.97762E1,1.27679726E2,8.676746E0,7.567665E1,7.5899034E0,7.232336E0,3.1866133E1,3.7910065E1,1.1427556E2,1.3404169E1,2.2887445E1,8.978688E0,2.1892548E1,1.6017519E1,6.639316E1,4.7882404E1,9.126637E0,4.2775316E0,1.4541466E1,8.34598E0,4.7710123E0,1.1246507E1,1.0250508E1,5.6142647E1,5.436855E0,4.244555E1,1.3448698E1,1.0927672E0,5.955007E0,2.3909726E0,3.990689E0,6.2598195E0,2.431998E1,1.8125566E1],"tree_param":{"num_deleted":"0","num_feature":"12","num_nodes":"39","size_leaf_vector":"1"}},{"base_weights":[2.513436E-9,-5.7669985E-1,3.8159955E-1,6.0783762E-2,-7.245641E-2,6.5063775E-1,1.882392E-1,-4.595242E-2,3.5381135E-1,2.930729E-1,7.366517E-2,-9.0146385E-2,4.2669398E-1,2.6670173E-3,6.429736E-2,4.590314E-1,-3.897658E-2,-3.2785848E-1,3.3963817E-1,-2.9762125E-2,5.117919E-1,5.6759067E-2,-2.3550909E-2,-5.8931984E-2,-1.5293366E-2,5.3015232E-2,-8.066661E-2,-3.82919E-2,5.6421155E-1,-3.9336372E-2,5.480827E-2,6.588388E-2,1.35227395E-2],"categories":[],"categories_nodes":[],"categories_segments":[],"categories_sizes":[],"default_left":[0,0,0,0,0,0,0,0,0,0,0,0,0,0,0,0,0,0,0,0,0,0,0,0,0,0,0,0,0,0,0,0,0],"id":3,"left_children":[1,3,5,7,-1,9,11,-1,13,15,-1,17,19,-1,-1,21,-1,23,25,-1,27,-1,-1,-1,-1,-1,29,-1,31,-1,-1,-1,-1],"loss_changes":[6.139817E1,1.0516205E1,8.6118145E0,3.4923956E0,0E0,1.9309292E0,6.616673E0,0E0,1.3579525E0,1.9009767E0,0E0,4.8666625E0,3.4530363E0,0E0,0E0,1.0900381E0,0E0,1.303829E0,1.4094E0,0E0,2.4807777E0,0E0,0E0,0E0,0E0,0E0,1.4328303E0,0E0,1.7790127E0,0E0,0E0,0E0,0E0],"parents":[2147483647,0,0,1,1,2,2,3,3,5,5,6,6,8,8,9,9,11,11,12,12,15,15,17,17,18,18,20,20,26,26,28,28],"right_children":[2,4,6,8,-1,10,12,-1,14,16,-1,18,20,-1,-1,22,-1,24,26,-1,28,-1,-1,-1,-1,-1,30,-1,32,-1,-1,-1,-1],"split_conditions":[1.5599782E0,1.4852144E-1,5.472056E-1,1.0116177E0,-7.245641E-2,5.568124E-2,1.9760103E0,-4.595242E-2,9.533622E-2,1E0,7.366517E-2,1.2399199E-1,6.1517936E-1,2.6670173E-3,6.429736E-2,5.5628684E-3,-3.897658E-2,6.058472E-2,7.443035E-1,-2.9762125E-2,3.6509335E-2,5.6759067E-2,-2.3550909E-2,-5.8931984E-2,-1.5293366E-2,5.3015232E-2,1.8652271E-2,-3.82919E-2,8.860211E-1,-3.9336372E-2,5.480827E-2,6.588388E-2,1.35227395E-2],"split_indices":[1,5,5,0,0,2,1,0,2,7,0,2,5,0,0,8,0,2,5,0,3,0,0,0,0,0,8,0,5,0,0,0,0],"split_type":[0,0,0,0,0,0,0,0,0,0,0,0,0,0,0,0,0,0,0,0,0,0,0,0,0,0,0,0,0,0,0,0,0],"sum_hessian":[2.7699585E2,1.1009752E2,1.6689833E2,2.0839893E1,8.925763E1,6.8802635E1,9.8095695E1,7.3034644E0,1.3536429E1,1.4196063E1,5.4606567E1,4.554539E1,5.255031E1,6.863594E0,6.6728354E0,1.1684096E1,2.5119665E0,2.9478247E1,1.6067144E1,5.2623267E0,4.728798E1,1.0262771E1,1.421326E0,1.0866711E1,1.8611536E1,1.0875973E1,5.191171E0,2.268243E0,4.5019737E1,3.7169733E0,1.4741981E0,3.6444775E1,8.574962E0],"tree_param":{"num_deleted":"0","num_feature":"12","num_nodes":"33","size_leaf_vector":"1"}},{"base_weights":[-5.688035E-9,-7.054863E-2,2.8942743E-1,5.758528E-1,8.8849634E-2,4.560768E-1,7.3624164E-2,-1.70272E-1,4.1603854E-1,5.0090253E-1,-3.0531732E-2,-4.4101334E-1,1.3915387E-1,1.0689965E-1,5.3300023E-2,3.6558282E-1,7.604903E-2,-1.9473502E-2,-6.45655E-2,3.787195E-2,-2.8373087E-2,-3.7887804E-2,4.8204258E-2,4.7407404E-2,-6.5726303E-3],"categories":[],"categories_nodes":[],"categories_segments":[],"categories_sizes":[],"default_left":[0,0,0,0,0,0,0,0,0,0,0,0,0,0,0,0,0,0,0,0,0,0,0,0,0],"id":4,"left_children":[1,-1,3,5,7,9,-1,11,13,15,-1,17,19,21,-1,23,-1,-1,-1,-1,-1,-1,-1,-1,-1],"loss_changes":[5.373347E1,0E0,1.0669311E1,1.1371498E0,9.475775E0,1.7407074E0,0E0,5.3068504E0,1.7261887E0,1.2785902E0,0E0,1.5694103E0,3.144671E0,2.8775406E0,0E0,1.4843068E0,0E0,0E0,0E0,0E0,0E0,0E0,0E0,0E0,0E0],"parents":[2147483647,0,0,2,2,3,3,4,4,5,5,7,7,8,8,9,9,11,11,12,12,13,13,15,15],"right_children":[2,-1,4,6,8,10,-1,12,14,16,-1,18,20,22,-1,24,-1,-1,-1,-1,-1,-1,-1,-1,-1],"split_conditions":[1.3098574E0,-7.054863E-2,5.472056E-1,1.7006164E0,1.9760103E0,1.6846642E0,7.3624164E-2,1.02593355E-1,5.5125035E-2,1.24748275E-1,-3.0531732E-2,4.4674975E-1,6.217004E-1,2.1792789E0,5.3300023E-2,6.355427E-1,7.604903E-2,-1.9473502E-2,-6.45655E-2,3.787195E-2,-2.8373087E-2,-3.7887804E-2,4.8204258E-2,4.7407404E-2,-6.5726303E-3],"split_indices":[1,0,5,0,1,0,0,2,2,2,0,4,4,1,0,4,0,0,0,0,0,0,0,0,0],"split_type":[0,0,0,0,0,0,0,0,0,0,0,0,0,0,0,0,0,0,0,0,0,0,0,0,0],"sum_hessian":[2.61158E2,7.555452E1,1.8560347E2,7.5672325E1,1.0993115E2,4.552128E1,3.0151047E1,6.16144E1,4.8316753E1,4.3313404E1,2.2078743E0,3.263456E1,2.897984E1,1.3787991E1,3.4528763E1,3.0054636E1,1.3258768E1,1.5696282E1,1.6938276E1,1.8566368E1,1.0413471E1,6.003727E0,7.7842636E0,2.3934912E1,6.119724E0],"tree_param":{"num_deleted":"0","num_feature":"12","num_nodes":"25","size_leaf_vector":"1"}},{"base_weights":[-5.462852E-10,-6.622487E-1,2.743226E-1,-6.9514096E-2,-1.1659279E-2,6.163352E-1,1.0290923E-1,-2.2458924E-2,6.374859E-2,-2.8229395E-1,3.083171E-1,-4.436142E-2,1.2669516E-1,4.3666175E-1,-4.79526E-2,4.0120814E-2,-1.599007E-2,1.3137512E-1,5.2898835E-2,-4.2777907E-2,2.8115132E-1,-4.9711514E-2,3.6139306E-2,-2.0948777E-2,4.6477836E-2],"categories":[],"categories_nodes":[],"categories_segments":[],"categories_sizes":[],"default_left":[0,0,0,0,0,0,0,0,0,0,0,0,0,0,0,0,0,0,0,0,0,0,0,0,0],"id":5,"left_children":[1,3,5,-1,-1,7,9,-1,-1,11,13,-1,15,17,19,-1,-1,21,-1,-1,23,-1,-1,-1,-1],"loss_changes":[4.5659084E1,1.2401848E0,1.03552265E1,0E0,0E0,1.1949024E0,9.548921E0,0E0,0E0,2.8346632E0,3.609078E0,0E0,1.062512E0,1.5593262E0,2.8307436E0,0E0,0E0,2.311821E0,0E0,0E0,1.1983931E0,0E0,0E0,0E0,0E0],"parents":[2147483647,0,0,1,1,2,2,5,5,6,6,9,9,10,10,12,12,13,13,14,14,17,17,20,20],"right_children":[2,4,6,-1,-1,8,10,-1,-1,12,14,-1,16,18,20,-1,-1,22,-1,-1,24,-1,-1,-1,-1],"split_conditions":[1.3098574E0,1.2476325E0,1.4852144E-1,-6.9514096E-2,-1.1659279E-2,-1.8307904E-2,1.7816602E0,-2.2458924E-2,6.374859E-2,1.2399199E-1,6.680019E-1,-4.436142E-2,4.416854E-1,6.1234266E-2,1.0324442E-1,4.0120814E-2,-1.599007E-2,2.1189637E-1,5.2898835E-2,-4.2777907E-2,1.9079337E0,-4.9711514E-2,3.6139306E-2,-2.0948777E-2,4.6477836E-2],"split_indices":[1,0,5,0,0,8,1,0,0,2,4,0,4,2,2,0,0,3,0,0,1,0,0,0,0],"split_type":[0,0,0,0,0,0,0,0,0,0,0,0,0,0,0,0,0,0,0,0,0,0,0,0,0],"sum_hessian":[2.4933011E2,7.261482E1,1.7671529E2,6.822806E1,4.38676E0,5.8131927E1,1.1858336E2,1.1902599E0,5.694167E1,4.1111774E1,7.747159E1,2.9422003E1,1.1689772E1,5.6788216E1,2.068337E1,5.7664886E0,5.9232826E0,1.3748947E1,4.303927E1,9.46257E0,1.12208E1,3.372603E0,1.0376345E1,3.017475E0,8.203325E0],"tree_param":{"num_deleted":"0","num_feature":"12","num_nodes":"25","size_leaf_vector":"1"}},{"base_weights":[-4.6527195E-9,-5.022644E-1,3.451922E-1,5.8832675E-2,-6.32489E-2,5.896247E-1,1.770481E-1,-2.3783108E-2,3.885681E-2,-2.6885582E-2,6.132434E-2,-2.0897267E-2,4.0246105E-1,-1.4746925E-1,5.406958E-1,5.7947017E-2,6.257379E-2,-4.5632754E-2,-9.621121E-3,-2.9596478E-2,6.8656534E-2,-1.123136E-2,5.7584286E-2,1.3749792E-2,-2.660202E-2],"categories":[],"categories_nodes":[],"categories_segments":[],"categories_sizes":[],"default_left":[0,0,0,0,0,0,0,0,0,0,0,0,0,0,0,0,0,0,0,0,0,0,0,0,0],"id":6,"left_children":[1,3,5,7,-1,9,11,-1,-1,-1,-1,13,15,17,19,-1,21,-1,23,-1,-1,-1,-1,-1,-1],"loss_changes":[4.1645332E1,7.1862526E0,5.746586E0,1.9847594E0,0E0,1.3325653E0,3.835457E0,0E0,0E0,0E0,0E0,3.393467E0,2.3794317E0,1.6488087E0,1.2757988E0,0E0,1.3995659E0,0E0,1.0878263E0,0E0,0E0,0E0,0E0,0E0,0E0],"parents":[2147483647,0,0,1,1,2,2,3,3,5,5,6,6,11,11,12,12,13,13,14,14,16,16,18,18],"right_children":[2,4,6,8,-1,10,12,-1,-1,-1,-1,14,16,18,20,-1,22,-1,24,-1,-1,-1,-1,-1,-1],"split_conditions":[1.5599782E0,1.4852144E-1,5.472056E-1,1.0540402E-1,-6.32489E-2,1.11272156E-1,2.02522E0,-2.3783108E-2,3.885681E-2,-2.6885582E-2,6.132434E-2,1.430732E-1,5.097151E-1,6.44033E-2,2.8666902E-1,5.7947017E-2,1.9760573E0,-4.5632754E-2,5.2808033E-4,-2.9596478E-2,6.8656534E-2,-1.123136E-2,5.7584286E-2,1.3749792E-2,-2.660202E-2],"split_indices":[1,5,5,2,0,4,1,0,0,0,0,2,4,2,3,0,0,0,8,0,0,0,0,0,0],"split_type":[0,0,0,0,0,0,0,0,0,0,0,0,0,0,0,0,0,0,0,0,0,0,0,0,0],"sum_hessian":[2.382E2,9.684001E1,1.4135999E2,1.8345076E1,7.8494934E1,5.6589165E1,8.477082E1,9.803534E0,8.541541E0,1.2371905E0,5.535197E1,4.5618465E1,3.915235E1,3.782979E1,7.7886786E0,2.5281284E1,1.3871068E1,1.096086E1,2.6868927E1,1.0035682E0,6.7851105E0,1.092854E1,2.9425278E0,1.7367422E1,9.501505E0],"tree_param":{"num_deleted":"0","num_feature":"12","num_nodes":"25","size_leaf_vector":"1"}},{"base_weights":[-2.330963E-9,-6.2380433E-2,2.5787356E-1,5.4449916E-2,9.503863E-2,-3.871177E-2,2.2700597E-1,-1.1495516E-1,3.4657747E-1,-3.851461E-2,3.971059E-2,1.9639601E-1,4.935035E-2,7.6767094E-3,5.2457046E-2],"categories":[],"categories_nodes":[],"categories_segments":[],"categories_sizes":[],"default_left":[0,0,0,0,0,0,0,0,0,0,0,0,0,0,0],"id":7,"left_children":[1,-1,3,-1,5,-1,7,9,11,-1,-1,13,-1,-1,-1],"loss_changes":[3.700463E1,0E0,7.544548E0,0E0,6.769113E0,0E0,3.436461E0,3.2343962E0,1.266675E0,0E0,0E0,1.2247078E0,0E0,0E0,0E0],"parents":[2147483647,0,0,2,2,4,4,6,6,7,7,8,8,11,11],"right_children":[2,-1,4,-1,6,-1,8,10,12,-1,-1,14,-1,-1,-1],"split_conditions":[1.3098574E0,-6.2380433E-2,5.1810074E-1,5.4449916E-2,1.6510357E0,-3.871177E-2,6.195527E-2,2.1792789E0,2.020044E0,-3.851461E-2,3.971059E-2,1.430732E-1,4.935035E-2,7.6767094E-3,5.2457046E-2],"split_indices":[1,0,5,0,1,0,2,1,1,0,0,2,0,0,0],"split_type":[0,0,0,0,0,0,0,0,0,0,0,0,0,0,0],"sum_hessian":[2.2803867E2,6.6281815E1,1.6175685E2,5.7753685E1,1.0400317E2,2.1933483E1,8.206968E1,2.1272194E1,6.079749E1,1.4086991E1,7.185202E0,3.1221212E1,2.9576277E1,2.3784872E1,7.4363394E0],"tree_param":{"num_deleted":"0","num_feature":"12","num_nodes":"15","size_leaf_vector":"1"}},{"base_weights":[4.868799E-10,-5.953807E-1,2.4282551E-1,-6.0955252E-2,3.2325428E-2,5.0870467E-2,9.056939E-2,-1.9612464E-1,2.906012E-1,-5.331027E-2,-1.6107759E-2,4.3422207E-2,6.1211277E-2,1.6796796E-2,-3.1316753E-2,-3.7201177E-2,3.444576E-2],"categories":[],"categories_nodes":[],"categories_segments":[],"categories_sizes":[],"default_left":[0,0,0,0,0,0,0,0,0,0,0,0,0,0,0,0,0],"id":8,"left_children":[1,3,5,-1,-1,-1,7,9,11,-1,13,-1,15,-1,-1,-1,-1],"loss_changes":[3.2020813E1,1.0323639E0,6.3225603E0,0E0,0E0,0E0,5.8636E0,2.5518913E0,1.9515524E0,0E0,1.6133826E0,0E0,3.10783E0,0E0,0E0,0E0,0E0],"parents":[2147483647,0,0,1,1,2,2,6,6,7,7,8,8,10,10,12,12],"right_children":[2,4,6,-1,-1,-1,8,10,12,-1,14,-1,16,-1,-1,-1,-1],"split_conditions":[1.3098574E0,1.4253794E0,5.1810074E-1,-6.0955252E-2,3.2325428E-2,5.0870467E-2,1.8329767E0,7.234283E-2,5.3722185E-1,-5.331027E-2,5.925871E-1,4.3422207E-2,1.0324442E-1,1.6796796E-2,-3.1316753E-2,-3.7201177E-2,3.444576E-2],"split_indices":[1,0,5,0,0,0,1,2,4,0,4,0,2,0,0,0,0],"split_type":[0,0,0,0,0,0,0,0,0,0,0,0,0,0,0,0,0],"sum_hessian":[2.194845E2,6.316331E1,1.5632118E2,6.253504E1,6.282694E-1,5.6068954E1,1.00252235E2,4.1209118E1,5.9043114E1,1.36659975E1,2.7543121E1,3.576053E1,2.3282585E1,1.7273815E1,1.0269306E1,9.080557E0,1.4202027E1],"tree_param":{"num_deleted":"0","num_feature":"12","num_nodes":"17","size_leaf_vector":"1"}},{"base_weights":[3.043626E-9,-4.4632843E-1,3.0067432E-1,3.980167E-2,-5.603906E-1,5.575347E-2,1.7937917E-1,-3.294404E-2,2.1538721E-2,-6.52263E-2,-3.6162135E-1,5.1486593E-2,4.4887054E-1,-5.5269897E-2,-5.4889987E-3,-3.0046059E-2,2.1173322E-1,5.2161943E-2,-2.314252E-2,3.941814E-2,-4.335109E-2,-1.9389726E-2,5.230672E-2],"categories":[],"categories_nodes":[],"categories_segments":[],"categories_sizes":[],"default_left":[0,0,0,0,0,0,0,0,0,0,0,0,0,0,0,0,0,0,0,0,0,0,0],"id":9,"left_children":[1,3,5,7,9,-1,11,-1,-1,-1,13,15,17,-1,-1,-1,19,-1,-1,-1,21,-1,-1],"loss_changes":[2.8663315E1,4.7892876E0,3.876009E0,1.1907468E0,1.0369225E0,0E0,3.01532E0,0E0,0E0,0E0,1.3924754E0,3.4991095E0,1.5184684E0,0E0,0E0,0E0,1.9923888E0,0E0,0E0,0E0,1.6874424E0,0E0,0E0],"parents":[2147483647,0,0,1,1,2,2,3,3,4,4,6,6,10,10,11,11,12,12,16,16,20,20],"right_children":[2,4,6,8,10,-1,12,-1,-1,-1,14,16,18,-1,-1,-1,20,-1,-1,-1,22,-1,-1],"split_conditions":[1.5599782E0,1.4852144E-1,1.4852144E-1,9.515912E-1,1.154329E0,5.575347E-2,2.0884993E0,-3.294404E-2,2.1538721E-2,-6.52263E-2,9.679768E-2,7.579657E-2,9.0142727E-1,-5.5269897E-2,-5.4889987E-3,-3.0046059E-2,5.3722185E-1,5.2161943E-2,-2.314252E-2,3.941814E-2,1.4865251E-1,-1.9389726E-2,5.230672E-2],"split_indices":[1,5,5,1,1,0,1,0,0,0,2,2,5,0,0,0,4,0,0,0,2,0,0],"split_type":[0,0,0,0,0,0,0,0,0,0,0,0,0,0,0,0,0,0,0,0,0,0,0],"sum_hessian":[2.1158734E2,8.4970535E1,1.26616806E2,1.6271755E1,6.869878E1,3.945933E1,8.715747E1,4.961625E0,1.131013E1,4.5422638E1,2.3276144E1,5.9914764E1,2.7242708E1,1.3847793E1,9.42835E0,1.8471378E1,4.1443386E1,2.4821604E1,2.4211051E0,2.3843855E1,1.7599531E1,1.4423613E1,3.1759193E0],"tree_param":{"num_deleted":"0","num_feature":"12","num_nodes":"23","size_leaf_vector":"1"}},{"base_weights":[5.667216E-9,-4.3719578E-1,2.9002988E-1,3.8250502E-2,-5.502483E-2,4.93007E-1,1.5266265E-1,-2.9316077E-2,2.4638452E-2,1.8054712E-1,5.6462493E-2,-1.81749E-2,3.505424E-1,-2.1737745E-2,3.989985E-2,-1.9618736E-1,2.9568737E-2,4.9011964E-2,8.6892685E-3,-3.0559158E-2,1.3481594E-2],"categories":[],"categories_nodes":[],"categories_segments":[],"categories_sizes":[],"default_left":[0,0,0,0,0,0,0,0,0,0,0,0,0,0,0,0,0,0,0,0,0],"id":10,"left_children":[1,3,5,7,-1,9,11,-1,-1,13,-1,15,17,-1,-1,19,-1,-1,-1,-1,-1],"loss_changes":[2.6011087E1,4.418436E0,3.3632984E0,1.220797E0,0E0,1.0018711E0,2.541676E0,0E0,0E0,1.0140585E0,0E0,2.3598862E0,1.2379508E0,0E0,0E0,1.0149821E0,0E0,0E0,0E0,0E0,0E0],"parents":[2147483647,0,0,1,1,2,2,3,3,5,5,6,6,9,9,11,11,12,12,15,15],"right_children":[2,4,6,8,-1,10,12,-1,-1,14,-1,16,18,-1,-1,20,-1,-1,-1,-1,-1],"split_conditions":[1.5599782E0,1.4852144E-1,5.472056E-1,1.0116177E0,-5.502483E-2,1.5445263E0,2.02522E0,-2.9316077E-2,2.4638452E-2,-7.481764E-3,5.6462493E-2,1.2399199E-1,5.097151E-1,-2.1737745E-2,3.989985E-2,1E0,2.9568737E-2,4.9011964E-2,8.6892685E-3,-3.0559158E-2,1.3481594E-2],"split_indices":[1,5,5,0,0,0,1,0,0,8,0,2,4,0,0,7,0,0,0,0,0],"split_type":[0,0,0,0,0,0,0,0,0,0,0,0,0,0,0,0,0,0,0,0,0],"sum_hessian":[2.0313501E2,8.081131E1,1.2232371E2,1.5651214E1,6.5160095E1,4.832644E1,7.399727E1,5.8799944E0,9.771219E0,9.667841E0,3.8658596E1,4.019954E1,3.3797726E1,3.4281464E0,6.239695E0,2.589032E1,1.430922E1,2.1536982E1,1.2260746E1,1.9516453E1,6.3738666E0],"tree_param":{"num_deleted":"0","num_feature":"12","num_nodes":"21","size_leaf_vector":"1"}},{"base_weights":[4.5610955E-9,-5.5449106E-2,2.1328402E-1,-5.118192E-2,3.4919205E-1,2.8675163E-1,-2.4861637E-1,4.3965143E-1,5.2656244E-2,-1.042445E-2,4.3740753E-2,-4.311833E-2,2.9164723E-3,1.1473526E-2,5.1198423E-2,-2.039932E-1,4.1948315E-2,-3.204976E-2,3.4519006E-2],"categories":[],"categories_nodes":[],"categories_segments":[],"categories_sizes":[],"default_left":[0,0,0,0,0,0,0,0,0,0,0,0,0,0,0,0,0,0,0],"id":11,"left_children":[1,-1,3,5,7,9,11,13,15,-1,-1,-1,-1,-1,-1,17,-1,-1,-1],"loss_changes":[2.338274E1,0E0,5.1502438E0,3.363457E0,2.510378E0,1.1448579E0,1.6192802E0,1.6389389E0,2.271002E0,0E0,0E0,0E0,0E0,0E0,0E0,1.0275294E0,0E0,0E0,0E0],"parents":[2147483647,0,0,2,2,3,3,4,4,5,5,6,6,7,7,8,8,15,15],"right_children":[2,-1,4,6,8,10,12,14,16,-1,-1,-1,-1,-1,-1,18,-1,-1,-1],"split_conditions":[1.3098574E0,-5.5449106E-2,1.7532597E0,1.4852144E-1,7.8377706E-1,8.406334E-2,1.04631275E-1,5.678434E-2,4.0837875E-1,-1.042445E-2,4.3740753E-2,-4.311833E-2,2.9164723E-3,1.1473526E-2,5.1198423E-2,9.980341E-1,4.1948315E-2,-3.204976E-2,3.4519006E-2],"split_indices":[1,0,1,5,5,2,2,2,3,0,0,0,0,0,0,5,0,0,0],"split_type":[0,0,0,0,0,0,0,0,0,0,0,0,0,0,0,0,0,0,0],"sum_hessian":[1.9571634E2,5.392459E1,1.4179175E2,4.8343212E1,9.344853E1,1.7661306E1,3.0681906E1,7.1235306E1,2.2213224E1,4.998027E0,1.266328E1,1.8180704E1,1.2501204E1,1.3441744E1,5.7793564E1,1.3330484E1,8.88274E0,1.13410015E1,1.9894831E0],"tree_param":{"num_deleted":"0","num_feature":"12","num_nodes":"19","size_leaf_vector":"1"}},{"base_weights":[2.0191862E-9,-5.3675253E-2,2.0550446E-1,4.6841726E-2,7.852366E-2,-1.768626E-1,2.5431535E-1,-3.1568807E-2,1.2414837E-2,-9.871316E-3,3.647976E-2,2.4127689E-1,-4.7559127E-2,-3.1449575E-2,3.7619095E-2],"categories":[],"categories_nodes":[],"categories_segments":[],"categories_sizes":[],"default_left":[0,0,0,0,0,0,0,0,0,0,0,0,0,0,0],"id":12,"left_children":[1,-1,3,-1,5,7,9,-1,-1,11,-1,13,-1,-1,-1],"loss_changes":[2.0980888E1,0E0,4.5551786E0,0E0,4.262907E0,1.6644899E0,1.6398041E0,0E0,0E0,2.1620846E0,0E0,1.0207118E0,0E0,0E0,0E0],"parents":[2147483647,0,0,2,2,4,4,5,5,6,6,9,9,11,11],"right_children":[2,-1,4,-1,6,8,10,-1,-1,12,-1,14,-1,-1,-1],"split_conditions":[1.3098574E0,-5.3675253E-2,1.4852144E-1,4.6841726E-2,1.8329767E0,1.222764E-1,6.615341E-2,-3.1568807E-2,1.2414837E-2,4.960658E-1,3.647976E-2,1.7105927E0,-4.7559127E-2,-3.1449575E-2,3.7619095E-2],"split_indices":[1,0,5,0,1,2,2,0,0,4,0,0,0,0,0],"split_type":[0,0,0,0,0,0,0,0,0,0,0,0,0,0,0],"sum_hessian":[1.882079E2,5.1661777E1,1.3654613E2,4.359471E1,9.295141E1,3.78939E1,5.5057507E1,2.5900091E1,1.1993813E1,1.6503872E1,3.8553635E1,1.103498E1,5.4688926E0,1.8954934E0,9.139486E0],"tree_param":{"num_deleted":"0","num_feature":"12","num_nodes":"15","size_leaf_vector":"1"}},{"base_weights":[1.5955204E-9,-4.0792212E-1,2.5332072E-1,2.5158296E-3,-5.060183E-2,5.0041687E-2,1.3806705E-1,-2.5044335E-2,2.785307E-2,2.830585E-1,-6.8279006E-2,3.473253E-2,-1.0162167E-2,-3.2112613E-2,1.3116144E-2],"categories":[],"categories_nodes":[],"categories_segments":[],"categories_sizes":[],"default_left":[0,0,0,0,0,0,0,0,0,0,0,0,0,0,0],"id":13,"left_children":[1,3,5,7,-1,-1,9,-1,-1,11,13,-1,-1,-1,-1],"loss_changes":[1.8997894E1,2.837017E0,3.1608515E0,1.0878294E0,0E0,0E0,2.3745756E0,0E0,0E0,1.1831267E0,1.7210243E0,0E0,0E0,0E0,0E0],"parents":[2147483647,0,0,1,1,2,2,3,3,6,6,9,9,10,10],"right_children":[2,4,6,8,-1,-1,10,-1,-1,12,14,-1,-1,-1,-1],"split_conditions":[1.5424888E0,1E0,1.4852144E-1,1.0540402E-1,-5.060183E-2,5.0041687E-2,5.3722185E-1,-2.5044335E-2,2.785307E-2,8.860211E-1,1.04631275E-1,3.473253E-2,-1.0162167E-2,-3.2112613E-2,1.3116144E-2],"split_indices":[1,6,5,2,0,0,4,0,0,5,2,0,0,0,0],"split_type":[0,0,0,0,0,0,0,0,0,0,0,0,0,0,0],"sum_hessian":[1.8184743E2,6.943156E1,1.1241586E2,1.3581294E1,5.585026E1,3.469348E1,7.772238E1,7.1349635E0,6.44633E0,4.5429237E1,3.2293144E1,3.9009243E1,6.419993E0,1.3970921E1,1.8322226E1],"tree_param":{"num_deleted":"0","num_feature":"12","num_nodes":"15","size_leaf_vector":"1"}},{"base_weights":[4.4916357E-10,-5.3183395E-2,1.7885102E-1,-2.8602686E-2,3.378716E-1,-1.8614297E-1,3.0759078E-1,5.1362462E-2,2.1302681E-2,7.645109E-3,-3.093434E-2,4.730438E-2,-1.6364817E-2],"categories":[],"categories_nodes":[],"categories_segments":[],"categories_sizes":[],"default_left":[0,0,0,0,0,0,0,0,0,0,0,0,0],"id":14,"left_children":[1,-1,3,5,7,9,11,-1,-1,-1,-1,-1,-1],"loss_changes":[1.6951736E1,0E0,4.409335E0,3.1711276E0,1.5488157E0,1.3389345E0,1.5694373E0,0E0,0E0,0E0,0E0,0E0,0E0],"parents":[2147483647,0,0,2,2,3,3,4,4,5,5,6,6],"right_children":[2,-1,4,6,8,10,12,-1,-1,-1,-1,-1,-1],"split_conditions":[1.2389655E0,-5.3183395E-2,1.8329767E0,1.2399199E-1,5.472056E-1,1.4852144E-1,7.443035E-1,5.1362462E-2,2.1302681E-2,7.645109E-3,-3.093434E-2,4.730438E-2,-1.6364817E-2],"split_indices":[1,0,1,2,5,5,5,0,0,0,0,0,0],"split_type":[0,0,0,0,0,0,0,0,0,0,0,0,0],"sum_hessian":[1.76216E2,4.3849854E1,1.3236617E2,5.7792217E1,7.4573944E1,3.965582E1,1.8136398E1,2.9678825E1,4.4895115E1,1.278495E1,2.6870869E1,1.3420575E1,4.715823E0],"tree_param":{"num_deleted":"0","num_feature":"12","num_nodes":"13","size_leaf_vector":"1"}},{"base_weights":[-1.6430461E-9,-4.962573E-2,1.7909469E-1,4.267159E-2,6.2134713E-2,-2.230148E-1,1.9672105E-1,-3.8198493E-2,1.8022119E-3,-8.4623866E-2,2.898708E-2,-3.0373354E-2,3.9046787E-2],"categories":[],"categories_nodes":[],"categories_segments":[],"categories_sizes":[],"default_left":[0,0,0,0,0,0,0,0,0,0,0,0,0],"id":15,"left_children":[1,-1,3,-1,5,7,9,-1,-1,11,-1,-1,-1],"loss_changes":[1.5321892E1,0E0,3.6422915E0,0E0,3.3907108E0,1.0963256E0,1.5911224E0,0E0,0E0,1.7469568E0,0E0,0E0,0E0],"parents":[2147483647,0,0,2,2,4,4,5,5,6,6,9,9],"right_children":[2,-1,4,-1,6,8,10,-1,-1,12,-1,-1,-1],"split_conditions":[1.3098574E0,-4.962573E-2,1.4852144E-1,4.267159E-2,1.7532597E0,1.04631275E-1,6.1234266E-2,-3.8198493E-2,1.8022119E-3,2.2799852E0,2.898708E-2,-3.0373354E-2,3.9046787E-2],"split_indices":[1,0,5,0,1,2,2,0,0,1,0,0,0],"split_type":[0,0,0,0,0,0,0,0,0,0,0,0,0],"sum_hessian":[1.7039426E2,4.4716747E1,1.25677505E2,3.946852E1,8.6208984E1,2.743183E1,5.8777153E1,1.6177555E1,1.1254275E1,1.4642674E1,4.413448E1,1.0267873E1,4.3748016E0],"tree_param":{"num_deleted":"0","num_feature":"12","num_nodes":"13","size_leaf_vector":"1"}},{"base_weights":[-3.3146155E-9,-5.314829E-2,1.5436298E-1,-3.8950678E-2,3.0935547E-1,-1.7430416E-1,2.691305E-1,5.4184932E-2,2.1428974E-1,-3.566533E-3,-4.29168E-2,4.243535E-2,-1.3350077E-2,-1.8841816E-2,3.1247526E-2,-2.4655512E-2,4.1051574E-2],"categories":[],"categories_nodes":[],"categories_segments":[],"categories_sizes":[],"default_left":[0,0,0,0,0,0,0,0,0,0,0,0,0,0,0,0,0],"id":16,"left_children":[1,-1,3,5,7,9,11,-1,13,-1,-1,-1,-1,15,-1,-1,-1],"loss_changes":[1.3699722E1,0E0,3.889223E0,2.485135E0,1.4737315E0,1.4415215E0,1.1966485E0,0E0,1.2124145E0,0E0,0E0,0E0,0E0,1.7206379E0,0E0,0E0,0E0],"parents":[2147483647,0,0,2,2,3,3,4,4,5,5,6,6,8,8,13,13],"right_children":[2,-1,4,6,8,10,12,-1,14,-1,-1,-1,-1,16,-1,-1,-1],"split_conditions":[1.1578809E0,-5.314829E-2,1.8329767E0,1.2412171E-1,1.3567688E-1,5.925871E-1,7.443035E-1,5.4184932E-2,6.615341E-2,-3.566533E-3,-4.29168E-2,4.243535E-2,-1.3350077E-2,2.2799852E0,3.1247526E-2,-2.4655512E-2,4.1051574E-2],"split_indices":[1,0,1,2,5,4,5,0,2,0,0,0,0,1,0,0,0],"split_type":[0,0,0,0,0,0,0,0,0,0,0,0,0,0,0,0,0],"sum_hessian":[1.6498572E2,3.658339E1,1.2840233E2,5.747081E1,7.093151E1,4.023017E1,1.724064E1,1.9222067E1,5.1709446E1,2.6794594E1,1.34355755E1,1.2404491E1,4.8361487E0,1.5563527E1,3.6145916E1,1.0448067E1,5.1154604E0],"tree_param":{"num_deleted":"0","num_feature":"12","num_nodes":"17","size_leaf_vector":"1"}},{"base_weights":[4.5825286E-9,-3.6017168E-1,2.1622631E-1,-5.0937958E-2,-1.24235734E-1,4.476819E-2,1.0184997E-1,-3.4265686E-2,1.5262579E-2,-1.6451733E-2,3.5475448E-1,-8.984744E-2,4.9248677E-2,4.239895E-2,-2.6786676E-2,6.4837933E-3,-3.015756E-2],"categories":[],"categories_nodes":[],"categories_segments":[],"categories_sizes":[],"default_left":[0,0,0,0,0,0,0,0,0,0,0,0,0,0,0,0,0],"id":17,"left_children":[1,3,5,-1,7,-1,9,-1,-1,11,13,15,-1,-1,-1,-1,-1],"loss_changes":[1.256283E1,2.067018E0,2.622861E0,0E0,1.5499676E0,0E0,2.062964E0,0E0,0E0,1.8297571E0,1.0600636E0,1.4154431E0,0E0,0E0,0E0,0E0,0E0],"parents":[2147483647,0,0,1,1,2,2,4,4,6,6,9,9,10,10,11,11],"right_children":[2,4,6,-1,8,-1,10,-1,-1,12,14,16,-1,-1,-1,-1,-1],"split_conditions":[1.397896E0,1.1980958E0,1.4852144E-1,-5.0937958E-2,1.0555864E-1,4.476819E-2,2.0884993E0,-3.4265686E-2,1.5262579E-2,1.4584357E-1,9.0142727E-1,5.3722185E-1,4.9248677E-2,4.239895E-2,-2.6786676E-2,6.4837933E-3,-3.015756E-2],"split_indices":[0,1,5,0,2,0,1,0,0,2,5,4,0,0,0,0,0],"split_type":[0,0,0,0,0,0,0,0,0,0,0,0,0,0,0,0,0],"sum_hessian":[1.5931299E2,5.9513935E1,9.979905E1,3.5747776E1,2.3766163E1,3.2042576E1,6.775648E1,1.31523695E1,1.0613792E1,4.6799786E1,2.095669E1,4.1620953E1,5.178834E0,1.9146626E1,1.8100643E0,2.445111E1,1.716984E1],"tree_param":{"num_deleted":"0","num_feature":"12","num_nodes":"17","size_leaf_vector":"1"}},{"base_weights":[-1.8588626E-9,-3.558958E-1,2.1264964E-1,5.7553556E-3,-4.63352E-2,4.5507755E-2,1.06971115E-1,2.4146264E-2,-8.096943E-2,-3.0567992E-2,1.0013941E-2],"categories":[],"categories_nodes":[],"categories_segments":[],"categories_sizes":[],"default_left":[0,0,0,0,0,0,0,0,0,0,0],"id":18,"left_children":[1,3,5,-1,-1,-1,7,-1,9,-1,-1],"loss_changes":[1.1775764E1,2.6122298E0,2.4466543E0,0E0,0E0,0E0,1.7671251E0,0E0,1.2347416E0,0E0,0E0],"parents":[2147483647,0,0,1,1,2,2,6,6,8,8],"right_children":[2,4,6,-1,-1,-1,8,-1,10,-1,-1],"split_conditions":[1.5573047E0,1.4852144E-1,1.4852144E-1,5.7553556E-3,-4.63352E-2,4.5507755E-2,5.3722185E-1,2.4146264E-2,1.04631275E-1,-3.0567992E-2,1.0013941E-2],"split_indices":[1,5,5,0,0,0,4,0,2,0,0],"split_type":[0,0,0,0,0,0,0,0,0,0,0],"sum_hessian":[1.5359715E2,5.719707E1,9.640008E1,1.1894832E1,4.530224E1,2.8261526E1,6.813855E1,3.9550888E1,2.8587664E1,1.2451125E1,1.6136538E1],"tree_param":{"num_deleted":"0","num_feature":"12","num_nodes":"11","size_leaf_vector":"1"}},{"base_weights":[5.6657186E-9,-4.5688704E-2,1.5376896E-1,-3.1785414E-2,2.8893313E-1,2.4224725E-2,-1.6838378E-1,4.6444456E-3,3.7333474E-1,3.291086E-3,-3.315501E-2,5.7062265E-2,2.3362957E-2],"categories":[],"categories_nodes":[],"categories_segments":[],"categories_sizes":[],"default_left":[0,0,0,0,0,0,0,0,0,0,0,0,0],"id":19,"left_children":[1,-1,3,5,7,-1,9,-1,11,-1,-1,-1,-1],"loss_changes":[1.064861E1,0E0,2.8533854E0,1.8635237E0,1.3275065E0,0E0,1.0975928E0,0E0,1.206254E0,0E0,0E0,0E0,0E0],"parents":[2147483647,0,0,2,2,3,3,4,4,6,6,8,8],"right_children":[2,-1,4,6,8,-1,10,-1,12,-1,-1,-1,-1],"split_conditions":[1.3098574E0,-4.5688704E-2,1.8329767E0,1.4852144E-1,5.678434E-2,2.4224725E-2,4.4674975E-1,4.6444456E-3,5.472056E-1,3.291086E-3,-3.315501E-2,5.7062265E-2,2.3362957E-2],"split_indices":[1,0,1,5,2,0,4,0,5,0,0,0,0],"split_type":[0,0,0,0,0,0,0,0,0,0,0,0,0],"sum_hessian":[1.4957076E2,3.7166946E1,1.124038E2,4.769398E1,6.4709816E1,1.5608347E1,3.2085636E1,1.7108063E1,4.7601757E1,1.4721881E1,1.7363756E1,1.8455257E1,2.9146498E1],"tree_param":{"num_deleted":"0","num_feature":"12","num_nodes":"13","size_leaf_vector":"1"}},{"base_weights":[-3.7650207E-9,-3.6650255E-1,1.8111365E-1,-5.0148685E-2,-1.1363981E-1,4.0409602E-2,7.4678116E-2,-3.8463287E-2,1.6651398E-2,-1.0941307E-2,2.6023054E-2],"categories":[],"categories_nodes":[],"categories_segments":[],"categories_sizes":[],"default_left":[0,0,0,0,0,0,0,0,0,0,0],"id":20,"left_children":[1,3,5,-1,7,-1,9,-1,-1,-1,-1],"loss_changes":[9.756985E0,1.6023326E0,2.3045995E0,0E0,1.446728E0,0E0,2.3450067E0,0E0,0E0,0E0,0E0],"parents":[2147483647,0,0,1,1,2,2,4,4,6,6],"right_children":[2,4,6,-1,8,-1,10,-1,-1,-1,-1],"split_conditions":[1.3159369E0,1.0676293E-1,1.4852144E-1,-5.0148685E-2,1.0438212E0,4.0409602E-2,1.9760103E0,-3.8463287E-2,1.6651398E-2,-1.0941307E-2,2.6023054E-2],"split_indices":[0,2,5,0,1,0,1,0,0,0,0],"split_type":[0,0,0,0,0,0,0,0,0,0,0],"sum_hessian":[1.4498988E2,4.761411E1,9.737577E1,3.0401701E1,1.7212408E1,3.0558697E1,6.681708E1,8.559683E0,8.652725E0,3.3746586E1,3.307049E1],"tree_param":{"num_deleted":"0","num_feature":"12","num_nodes":"11","size_leaf_vector":"1"}},{"base_weights":[3.8230066E-10,-4.5682184E-2,1.4481354E-1,-6.400627E-2,2.535617E-1,-3.307959E-2,8.39884E-3,4.596857E-2,1.5063234E-1,3.111335E-2,1.9100228E-2,-3.3679258E-2,1.3254056E-2],"categories":[],"categories_nodes":[],"categories_segments":[],"categories_sizes":[],"default_left":[0,0,0,0,0,0,0,0,0,0,0,0,0],"id":21,"left_children":[1,-1,3,5,7,-1,-1,-1,9,-1,11,-1,-1],"loss_changes":[9.413302E0,0E0,2.4697692E0,1.5201389E0,1.4423418E0,0E0,0E0,0E0,1.0286169E0,0E0,1.1750237E0,0E0,0E0],"parents":[2147483647,0,0,2,2,3,3,4,4,8,8,10,10],"right_children":[2,-1,4,6,8,-1,-1,-1,10,-1,12,-1,-1],"split_conditions":[1.3098574E0,-4.5682184E-2,1.7532597E0,8.22278E-2,5.1810074E-1,-3.307959E-2,8.39884E-3,4.596857E-2,3.9649376E-1,3.111335E-2,6.1234266E-2,-3.3679258E-2,1.3254056E-2],"split_indices":[1,0,1,2,5,0,0,0,4,0,2,0,0],"split_type":[0,0,0,0,0,0,0,0,0,0,0,0,0],"sum_hessian":[1.402938E2,3.325009E1,1.070437E2,3.6796997E1,7.02467E1,1.2688421E1,2.4108578E1,2.224112E1,4.800558E1,2.1006763E1,2.6998817E1,6.0498657E0,2.0948952E1],"tree_param":{"num_deleted":"0","num_feature":"12","num_nodes":"13","size_leaf_vector":"1"}},{"base_weights":[-9.67054E-10,-4.857302E-2,1.2775983E-1,3.7020084E-2,2.1360042E-2,-1.2701242E-1,2.296791E-2,1.2472288E-3,-3.613406E-2,-3.2494E-2,1.3019042E-2],"categories":[],"categories_nodes":[],"categories_segments":[],"categories_sizes":[],"default_left":[0,0,0,0,0,0,0,0,0,0,0],"id":22,"left_children":[1,-1,3,-1,5,7,-1,9,-1,-1,-1],"loss_changes":[8.586816E0,0E0,2.8181248E0,0E0,2.4153497E0,1.374903E0,0E0,1.3272784E0,0E0,0E0,0E0],"parents":[2147483647,0,0,2,2,4,4,5,5,7,7],"right_children":[2,-1,4,-1,6,8,-1,10,-1,-1,-1],"split_conditions":[1.1980958E0,-4.857302E-2,1.4852144E-1,3.7020084E-2,1.9760103E0,6.217004E-1,2.296791E-2,7.15941E-2,-3.613406E-2,-3.2494E-2,1.3019042E-2],"split_indices":[1,0,5,0,1,4,0,2,0,0,0],"split_type":[0,0,0,0,0,0,0,0,0,0,0],"sum_hessian":[1.3637024E2,2.7815722E1,1.0855451E2,3.2353947E1,7.620057E1,4.4731472E1,3.1469093E1,2.9551256E1,1.5180216E1,7.94154E0,2.1609716E1],"tree_param":{"num_deleted":"0","num_feature":"12","num_nodes":"11","size_leaf_vector":"1"}},{"base_weights":[-1.2998246E-9,-3.248226E-1,1.8079549E-1,7.451445E-3,-4.0439863E-2,-5.0223365E-2,2.5743625E-1,-1.7469088E-2,3.2545518E-2,4.1645993E-2,1.4520359E-2],"categories":[],"categories_nodes":[],"categories_segments":[],"categories_sizes":[],"default_left":[0,0,0,0,0,0,0,0,0,0,0],"id":23,"left_children":[1,3,5,-1,-1,7,9,-1,-1,-1,-1],"loss_changes":[7.891703E0,1.5570798E0,1.5414376E0,0E0,0E0,1.1015736E0,1.0994024E0,0E0,0E0,0E0,0E0],"parents":[2147483647,0,0,1,1,2,2,5,5,6,6],"right_children":[2,4,6,-1,-1,8,10,-1,-1,-1,-1],"split_conditions":[1.397896E0,1.4273722E-1,5.7137642E-2,7.451445E-3,-4.0439863E-2,2.2258484E0,5.472056E-1,-1.7469088E-2,3.2545518E-2,4.1645993E-2,1.4520359E-2],"split_indices":[0,5,2,0,0,1,5,0,0,0,0],"split_type":[0,0,0,0,0,0,0,0,0,0,0],"sum_hessian":[1.323807E2,4.705094E1,8.532976E1,7.8285346E0,3.9222404E1,2.1342272E1,6.3987488E1,1.6432842E1,4.9094296E0,2.535336E1,3.863413E1],"tree_param":{"num_deleted":"0","num_feature":"12","num_nodes":"11","size_leaf_vector":"1"}},{"base_weights":[2.4560736E-9,-3.3037296E-1,1.7057195E-1,2.682103E-3,-4.305136E-2,4.0063884E-2,7.518587E-2,-2.113909E-2,3.0115375E-2,-1.0673075E-2,3.4631975E-2],"categories":[],"categories_nodes":[],"categories_segments":[],"categories_sizes":[],"default_left":[0,0,0,0,0,0,0,0,0,0,0],"id":24,"left_children":[1,3,5,-1,-1,-1,7,9,-1,-1,-1],"loss_changes":[7.3826895E0,1.6071849E0,1.8659558E0,0E0,0E0,0E0,1.3626001E0,1.4403468E0,0E0,0E0,0E0],"parents":[2147483647,0,0,1,1,2,2,6,6,7,7],"right_children":[2,4,6,-1,-1,-1,8,10,-1,-1,-1],"split_conditions":[1.5237291E0,1.4852144E-1,1.4852144E-1,2.682103E-3,-4.305136E-2,4.0063884E-2,2.0884993E0,1.4214192E-1,3.0115375E-2,-1.0673075E-2,3.4631975E-2],"split_indices":[1,5,5,0,0,0,1,2,0,0,0],"split_type":[0,0,0,0,0,0,0,0,0,0,0],"sum_hessian":[1.2900941E2,4.3608757E1,8.540066E1,9.709141E0,3.3899616E1,2.40919E1,6.1308754E1,4.3620697E1,1.7688059E1,3.595524E1,7.6654587E0],"tree_param":{"num_deleted":"0","num_feature":"12","num_nodes":"11","size_leaf_vector":"1"}},{"base_weights":[-1.0894249E-9,-4.7267985E-2,1.1382375E-1,-7.272263E-2,2.2600652E-1,2.052435E-2,-1.9359736E-2,-5.81509E-4,3.0586181E-2],"categories":[],"categories_nodes":[],"categories_segments":[],"categories_sizes":[],"default_left":[0,0,0,0,0,0,0,0,0],"id":25,"left_children":[1,-1,3,5,7,-1,-1,-1,-1],"loss_changes":[6.8609395E0,0E0,2.167201E0,1.3619035E0,1.1943686E0,0E0,0E0,0E0,0E0],"parents":[2147483647,0,0,2,2,3,3,4,4],"right_children":[2,-1,4,6,8,-1,-1,-1,-1],"split_conditions":[1.1578809E0,-4.7267985E-2,1.7532597E0,1.3683105E-1,5.7137642E-2,2.052435E-2,-1.9359736E-2,-5.81509E-4,3.0586181E-2],"split_indices":[1,0,1,5,2,0,0,0,0],"split_type":[0,0,0,0,0,0,0,0,0],"sum_hessian":[1.2552156E2,2.3748327E1,1.0177323E2,3.835134E1,6.342189E1,1.1411418E1,2.6939924E1,1.6486988E1,4.6934902E1],"tree_param":{"num_deleted":"0","num_feature":"12","num_nodes":"9","size_leaf_vector":"1"}},{"base_weights":[2.9908884E-9,-4.5988612E-2,1.1144685E-1,3.3457253E-2,1.54984975E-2,1.602136E-1,-1.7644049E-1,4.3770857E-2,4.0693086E-2,-3.7877526E-2,1.7847139E-3,-7.864604E-3,3.954705E-2],"categories":[],"categories_nodes":[],"categories_segments":[],"categories_sizes":[],"default_left":[0,0,0,0,0,0,0,0,0,0,0,0,0],"id":26,"left_children":[1,-1,3,-1,5,7,9,11,-1,-1,-1,-1,-1],"loss_changes":[6.372194E0,0E0,2.1373057E0,0E0,2.0012631E0,1.1606745E0,1.2257812E0,1.2791963E0,0E0,0E0,0E0,0E0,0E0],"parents":[2147483647,0,0,2,2,4,4,5,5,6,6,7,7],"right_children":[2,-1,4,-1,6,8,10,12,-1,-1,-1,-1,-1],"split_conditions":[1.1980958E0,-4.5988612E-2,1.4852144E-1,3.3457253E-2,5.3722185E-1,1.1990855E-1,1.04631275E-1,2.1792789E0,4.0693086E-2,-3.7877526E-2,1.7847139E-3,-7.864604E-3,3.954705E-2],"split_indices":[1,0,5,0,4,2,2,1,0,0,0,0,0],"split_type":[0,0,0,0,0,0,0,0,0,0,0,0,0],"sum_hessian":[1.2232855E2,2.3252102E1,9.9076454E1,2.9045292E1,7.003116E1,4.00216E1,3.0009562E1,2.7989058E1,1.203254E1,1.42352E1,1.5774362E1,2.1338203E1,6.6508546E0],"tree_param":{"num_deleted":"0","num_feature":"12","num_nodes":"13","size_leaf_vector":"1"}},{"base_weights":[-1.2927674E-9,-3.097363E-1,1.6342229E-1,1.4672416E-3,-4.0592846E-2,3.8385943E-2,7.273397E-2,1.9443985E-2,-9.312952E-3],"categories":[],"categories_nodes":[],"categories_segments":[],"categories_sizes":[],"default_left":[0,0,0,0,0,0,0,0,0],"id":27,"left_children":[1,3,5,-1,-1,-1,7,-1,-1],"loss_changes":[6.0936484E0,1.3034663E0,1.547497E0,0E0,0E0,0E0,1.1701357E0,0E0,0E0],"parents":[2147483647,0,0,1,1,2,2,6,6],"right_children":[2,4,6,-1,-1,-1,8,-1,-1],"split_conditions":[1.5573047E0,1.4852144E-1,1.4852144E-1,1.4672416E-3,-4.0592846E-2,3.8385943E-2,5.3722185E-1,1.9443985E-2,-9.312952E-3],"split_indices":[1,5,5,0,0,0,4,0,0],"split_type":[0,0,0,0,0,0,0,0,0],"sum_hessian":[1.18385445E2,4.057943E1,7.7806015E1,9.474402E0,3.1105028E1,2.1736973E1,5.6069042E1,3.223998E1,2.3829062E1],"tree_param":{"num_deleted":"0","num_feature":"12","num_nodes":"9","size_leaf_vector":"1"}},{"base_weights":[-8.1316076E-10,-2.2437192E-1,2.1216153E-1,8.056726E-3,-3.3226497E-2,4.10241E-2,1.1702286E-2],"categories":[],"categories_nodes":[],"categories_segments":[],"categories_sizes":[],"default_left":[0,0,0,0,0,0,0],"id":28,"left_children":[1,3,5,-1,-1,-1,-1],"loss_changes":[5.6086817E0,1.9107718E0,1.0932224E0,0E0,0E0,0E0,0E0],"parents":[2147483647,0,0,1,1,2,2],"right_children":[2,4,6,-1,-1,-1,-1],"split_conditions":[1.7532597E0,1.4852144E-1,5.1810074E-1,8.056726E-3,-3.3226497E-2,4.10241E-2,1.1702286E-2],"split_indices":[1,5,5,0,0,0,0],"split_type":[0,0,0,0,0,0,0],"sum_hessian":[1.158218E2,5.626309E1,5.9558716E1,1.4770457E1,4.149263E1,1.8250013E1,4.13087E1],"tree_param":{"num_deleted":"0","num_feature":"12","num_nodes":"7","size_leaf_vector":"1"}},{"base_weights":[-3.171006E-9,-4.0116545E-2,1.1062491E-1,-6.2355123E-2,2.1876583E-1,-1.8114243E-2,3.872461E-2,1.0783508E-2,4.0448334E-2],"categories":[],"categories_nodes":[],"categories_segments":[],"categories_sizes":[],"default_left":[0,0,0,0,0,0,0,0,0],"id":29,"left_children":[1,-1,3,5,7,-1,-1,-1,-1],"loss_changes":[5.1362133E0,0E0,1.7106501E0,1.9754776E0,1.1109726E0,0E0,0E0,0E0,0E0],"parents":[2147483647,0,0,2,2,3,3,4,4],"right_children":[2,-1,4,6,8,-1,-1,-1,-1],"split_conditions":[1.3098574E0,-4.0116545E-2,8.04891E-2,2.2258484E0,1.9760103E0,-1.8114243E-2,3.872461E-2,1.0783508E-2,4.0448334E-2],"split_indices":[1,0,2,1,1,0,0,0,0],"split_type":[0,0,0,0,0,0,0,0,0],"sum_hessian":[1.1373551E2,2.4016552E1,8.9718956E1,3.467574E1,5.5043217E1,2.7901184E1,6.774554E0,3.544953E1,1.9593687E1],"tree_param":{"num_deleted":"0","num_feature":"12","num_nodes":"9","size_leaf_vector":"1"}},{"base_weights":[2.0636113E-9,-4.3961637E-2,9.753086E-2,3.1575438E-2,4.6301084E-3,-1.2069601E-2,1.8418452E-2],"categories":[],"categories_nodes":[],"categories_segments":[],"categories_sizes":[],"default_left":[0,0,0,0,0,0,0],"id":30,"left_children":[1,-1,3,-1,5,-1,-1],"loss_changes":[4.826032E0,0E0,1.8661028E0,0E0,1.4990542E0,0E0,0E0],"parents":[2147483647,0,0,2,2,4,4],"right_children":[2,-1,4,-1,6,-1,-1],"split_conditions":[1.1578809E0,-4.3961637E-2,1.4852144E-1,3.1575438E-2,1.9760103E0,-1.2069601E-2,1.8418452E-2],"split_indices":[1,0,5,0,1,0,0],"split_type":[0,0,0,0,0,0,0],"sum_hessian":[1.1055749E2,1.943728E1,9.112021E1,2.6491928E1,6.462828E1,3.8254826E1,2.6373457E1],"tree_param":{"num_deleted":"0","num_feature":"12","num_nodes":"7","size_leaf_vector":"1"}},{"base_weights":[-2.0423303E-9,-3.938627E-2,1.0443495E-1,3.031121E-2,1.80023E-2,-2.073207E-1,1.14612235E-2,-3.2806624E-2,2.9879803E-2],"categories":[],"categories_nodes":[],"categories_segments":[],"categories_sizes":[],"default_left":[0,0,0,0,0,0,0,0,0],"id":31,"left_children":[1,-1,3,-1,5,7,-1,-1,-1],"loss_changes":[4.5319843E0,0E0,1.4900192E0,0E0,1.3679469E0,1.252213E0,0E0,0E0,0E0],"parents":[2147483647,0,0,2,2,4,4,5,5],"right_children":[2,-1,4,-1,6,8,-1,-1,-1],"split_conditions":[1.3098574E0,-3.938627E-2,1.4852144E-1,3.031121E-2,7.10954E-2,2.3145375E0,1.14612235E-2,-3.2806624E-2,2.9879803E-2],"split_indices":[1,0,5,0,2,1,0,0,0],"split_type":[0,0,0,0,0,0,0,0,0],"sum_hessian":[1.0817871E2,2.2091639E1,8.6087074E1,2.53378E1,6.0749275E1,1.7886559E1,4.2862713E1,1.4725317E1,3.1612415E0],"tree_param":{"num_deleted":"0","num_feature":"12","num_nodes":"9","size_leaf_vector":"1"}},{"base_weights":[2.0759263E-9,-2.848301E-1,1.4318033E-1,-4.1880008E-2,-4.292642E-3,3.5415456E-2,5.7955146E-2,1.7711164E-2,-1.0002562E-2],"categories":[],"categories_nodes":[],"categories_segments":[],"categories_sizes":[],"default_left":[0,0,0,0,0,0,0,0,0],"id":32,"left_children":[1,3,5,-1,-1,-1,7,-1,-1],"loss_changes":[4.3926697E0,1.1497412E0,1.2682831E0,0E0,0E0,0E0,1.0013002E0,0E0,0E0],"parents":[2147483647,0,0,1,1,2,2,6,6],"right_children":[2,4,6,-1,-1,-1,8,-1,-1],"split_conditions":[1.5573047E0,1.0676293E-1,1.4852144E-1,-4.1880008E-2,-4.292642E-3,3.5415456E-2,5.3722185E-1,1.7711164E-2,-1.0002562E-2],"split_indices":[1,2,5,0,0,0,4,0,0],"split_type":[0,0,0,0,0,0,0,0,0],"sum_hessian":[1.0571082E2,3.5031998E1,7.0678825E1,2.2075163E1,1.2956835E1,1.9428417E1,5.1250412E1,2.9146019E1,2.2104391E1],"tree_param":{"num_deleted":"0","num_feature":"12","num_nodes":"9","size_leaf_vector":"1"}},{"base_weights":[6.5216976E-10,-4.3476347E-2,8.851787E-2,-1.9304981E-2,2.5963282E-2,9.361546E-3,-2.1912338E-2],"categories":[],"categories_nodes":[],"categories_segments":[],"categories_sizes":[],"default_left":[0,0,0,0,0,0,0],"id":33,"left_children":[1,-1,3,5,-1,-1,-1],"loss_changes":[4.0555015E0,0E0,1.6204013E0,1.2534161E0,0E0,0E0,0E0],"parents":[2147483647,0,0,2,2,3,3],"right_children":[2,-1,4,6,-1,-1,-1],"split_conditions":[1.1578809E0,-4.3476347E-2,1.9602928E0,6.217004E-1,2.5963282E-2,9.361546E-3,-2.1912338E-2],"split_indices":[1,0,1,4,0,0,0],"split_type":[0,0,0,0,0,0,0],"sum_hessian":[1.03380585E2,1.6826097E1,8.655449E1,5.3641266E1,3.291322E1,3.4612633E1,1.9028633E1],"tree_param":{"num_deleted":"0","num_feature":"12","num_nodes":"7","size_leaf_vector":"1"}},{"base_weights":[-7.3423506E-10,-4.2004835E-2,8.604578E-2,2.730616E-2,-1.7523726E-2,-1.614437E-1,1.6053792E-2,-2.7448324E-2,2.9348684E-2],"categories":[],"categories_nodes":[],"categories_segments":[],"categories_sizes":[],"default_left":[0,0,0,0,0,0,0,0,0],"id":34,"left_children":[1,-1,3,-1,5,7,-1,-1,-1],"loss_changes":[3.7302632E0,0E0,1.6639476E0,0E0,1.4627796E0,1.7007483E0,0E0,0E0,0E0],"parents":[2147483647,0,0,2,2,4,4,5,5],"right_children":[2,-1,4,-1,6,8,-1,-1,-1],"split_conditions":[1.1980958E0,-4.2004835E-2,5.472056E-1,2.730616E-2,1.0540402E-1,2.2104769E0,1.6053792E-2,-2.7448324E-2,2.9348684E-2],"split_indices":[1,0,5,0,2,1,0,0,0],"split_type":[0,0,0,0,0,0,0,0,0],"sum_hessian":[1.0120736E2,1.6547245E1,8.466012E1,2.9591011E1,5.5069103E1,3.050582E1,2.4563284E1,2.4752142E1,5.7536774E0],"tree_param":{"num_deleted":"0","num_feature":"12","num_nodes":"9","size_leaf_vector":"1"}},{"base_weights":[2.6924976E-9,-2.0176043E-1,1.8200001E-1,8.00735E-3,-3.0822337E-2,2.727255E-2,-3.1282746E-3],"categories":[],"categories_nodes":[],"categories_segments":[],"categories_sizes":[],"default_left":[0,0,0,0,0,0,0],"id":35,"left_children":[1,3,5,-1,-1,-1,-1],"loss_changes":[3.6876833E0,1.4537363E0,1.0301931E0,0E0,0E0,0E0,0E0],"parents":[2147483647,0,0,1,1,2,2],"right_children":[2,4,6,-1,-1,-1,-1],"split_conditions":[1.7532597E0,1.4852144E-1,7.610592E-1,8.00735E-3,-3.0822337E-2,2.727255E-2,-3.1282746E-3],"split_indices":[1,5,5,0,0,0,0],"split_type":[0,0,0,0,0,0,0],"sum_hessian":[9.842602E1,4.662746E1,5.1798553E1,1.2852242E1,3.377522E1,3.614473E1,1.5653825E1],"tree_param":{"num_deleted":"0","num_feature":"12","num_nodes":"7","size_leaf_vector":"1"}},{"base_weights":[8.734191E-9,-3.7579473E-2,9.0409845E-2,-1.3154298E-2,1.6587038E-1,3.46133E-2,6.246924E-3],"categories":[],"categories_nodes":[],"categories_segments":[],"categories_sizes":[],"default_left":[0,0,0,0,0,0,0],"id":36,"left_children":[1,-1,3,-1,5,-1,-1],"loss_changes":[3.3483236E0,0E0,1.3523219E0,0E0,1.0916321E0,0E0,0E0],"parents":[2147483647,0,0,2,2,4,4],"right_children":[2,-1,4,-1,6,-1,-1],"split_conditions":[1.3098574E0,-3.7579473E-2,5.7137642E-2,-1.3154298E-2,5.472056E-1,3.46133E-2,6.246924E-3],"split_indices":[1,0,2,0,5,0,0],"split_type":[0,0,0,0,0,0,0],"sum_hessian":[9.655102E1,1.8111742E1,7.843927E1,1.971326E1,5.8726013E1,2.055111E1,3.81749E1],"tree_param":{"num_deleted":"0","num_feature":"12","num_nodes":"7","size_leaf_vector":"1"}},{"base_weights":[7.43625E-11,-1.9156496E-1,1.7146608E-1,-2.9169142E-2,1.0116714E-2,4.4813514E-2,9.606267E-3],"categories":[],"categories_nodes":[],"categories_segments":[],"categories_sizes":[],"default_left":[0,0,0,0,0,0,0],"id":37,"left_children":[1,3,5,-1,-1,-1,-1],"loss_changes":[3.1792412E0,1.3694417E0,1.0224501E0,0E0,0E0,0E0,0E0],"parents":[2147483647,0,0,1,1,2,2],"right_children":[2,4,6,-1,-1,-1,-1],"split_conditions":[1.7532597E0,1.2399199E-1,1.189705E-1,-2.9169142E-2,1.0116714E-2,4.4813514E-2,9.606267E-3],"split_indices":[1,2,5,0,0,0,0],"split_type":[0,0,0,0,0,0,0],"sum_hessian":[9.478971E1,4.471552E1,5.0074192E1,3.3321682E1,1.1393835E1,9.665717E0,4.0408474E1],"tree_param":{"num_deleted":"0","num_feature":"12","num_nodes":"7","size_leaf_vector":"1"}},{"base_weights":[-1.3535235E-10,-4.1006174E-2,7.734871E-2,2.7624995E-2,-5.5619823E-3,1.2363567E-2,-1.7043402E-2],"categories":[],"categories_nodes":[],"categories_segments":[],"categories_sizes":[],"default_left":[0,0,0,0,0,0,0],"id":38,"left_children":[1,-1,3,-1,5,-1,-1],"loss_changes":[3.0171885E0,0E0,1.3213197E0,0E0,1.2451423E0,0E0,0E0],"parents":[2147483647,0,0,2,2,4,4],"right_children":[2,-1,4,-1,6,-1,-1],"split_conditions":[1.1578809E0,-4.1006174E-2,1.4852144E-1,2.7624995E-2,5.3722185E-1,1.2363567E-2,-1.7043402E-2],"split_indices":[1,0,5,0,4,0,0],"split_type":[0,0,0,0,0,0,0],"sum_hessian":[9.31262E1,1.4095879E1,7.903032E1,2.2565119E1,5.64652E1,3.1797798E1,2.4667402E1],"tree_param":{"num_deleted":"0","num_feature":"12","num_nodes":"7","size_leaf_vector":"1"}},{"base_weights":[5.484329E-9,-2.6234988E-2,1.2004492E-1,3.841292E-2,5.287212E-2,-1.3728768E-2,1.7270768E-2],"categories":[],"categories_nodes":[],"categories_segments":[],"categories_sizes":[],"default_left":[0,0,0,0,0,0,0],"id":39,"left_children":[1,-1,3,-1,5,-1,-1],"loss_changes":[2.9491653E0,0E0,1.1193609E0,0E0,1.2172818E0,0E0,0E0],"parents":[2147483647,0,0,2,2,4,4],"right_children":[2,-1,4,-1,6,-1,-1],"split_conditions":[1.5573047E0,-2.6234988E-2,1.189705E-1,3.841292E-2,8.04891E-2,-1.3728768E-2,1.7270768E-2],"split_indices":[1,0,5,0,2,0,0],"split_type":[0,0,0,0,0,0,0],"sum_hessian":[9.164283E1,2.8397224E1,6.3245605E1,1.1868207E1,5.13774E1,1.980477E1,3.1572628E1],"tree_param":{"num_deleted":"0","num_feature":"12","num_nodes":"7","size_leaf_vector":"1"}},{"base_weights":[4.1029016E-9,-1.6109066E-1,1.8353608E-2,1.1143309E-2,-2.6002547E-2],"categories":[],"categories_nodes":[],"categories_segments":[],"categories_sizes":[],"default_left":[0,0,0,0,0],"id":40,"left_children":[1,3,-1,-1,-1],"loss_changes":[2.709921E0,1.3450814E0,0E0,0E0,0E0],"parents":[2147483647,0,0,1,1],"right_children":[2,4,-1,-1,-1],"split_conditions":[1.8329767E0,1.4852144E-1,1.8353608E-2,1.1143309E-2,-2.6002547E-2],"split_indices":[1,5,0,0,0],"split_type":[0,0,0,0,0],"sum_hessian":[8.965683E1,4.7813206E1,4.1843628E1,1.2700994E1,3.511221E1],"tree_param":{"num_deleted":"0","num_feature":"12","num_nodes":"5","size_leaf_vector":"1"}},{"base_weights":[1.8146283E-9,-3.555349E-2,8.0424175E-2,1.5266781E-2,3.4144364E-2,-1.7006142E-2,1.2177433E-2],"categories":[],"categories_nodes":[],"categories_segments":[],"categories_sizes":[],"default_left":[0,0,0,0,0,0,0],"id":41,"left_children":[1,-1,3,5,-1,-1,-1],"loss_changes":[2.5897439E0,0E0,1.2509937E0,1.2080905E0,0E0,0E0,0E0],"parents":[2147483647,0,0,2,2,3,3],"right_children":[2,-1,4,6,-1,-1,-1],"split_conditions":[1.3098574E0,-3.555349E-2,2.1288435E0,8.04891E-2,3.4144364E-2,-1.7006142E-2,1.2177433E-2],"split_indices":[1,0,1,2,0,0,0],"split_type":[0,0,0,0,0,0,0],"sum_hessian":[8.857075E1,1.5708169E1,7.286258E1,5.9154526E1,1.3708054E1,2.1371096E1,3.7783432E1],"tree_param":{"num_deleted":"0","num_feature":"12","num_nodes":"7","size_leaf_vector":"1"}},{"base_weights":[1.5823566E-10,-4.0918496E-2,6.717504E-2,2.8389165E-2,-1.8492294E-2,-2.048142E-2,8.764575E-3],"categories":[],"categories_nodes":[],"categories_segments":[],"categories_sizes":[],"default_left":[0,0,0,0,0,0,0],"id":42,"left_children":[1,-1,3,-1,5,-1,-1],"loss_changes":[2.4364839E0,0E0,1.4188539E0,0E0,1.115685E0,0E0,0E0],"parents":[2147483647,0,0,2,2,4,4],"right_children":[2,-1,4,-1,6,-1,-1],"split_conditions":[1.0835216E0,-4.0918496E-2,1.4852144E-1,2.8389165E-2,2.1189637E-1,-2.048142E-2,8.764575E-3],"split_indices":[1,0,5,0,3,0,0],"split_type":[0,0,0,0,0,0,0],"sum_hessian":[8.664128E1,1.1499961E1,7.514132E1,2.0632484E1,5.450883E1,1.9444662E1,3.506417E1],"tree_param":{"num_deleted":"0","num_feature":"12","num_nodes":"7","size_leaf_vector":"1"}},{"base_weights":[-2.8728253E-9,-2.4420744E-2,1.08623326E-1,3.2633692E-2,2.77632E-3],"categories":[],"categories_nodes":[],"categories_segments":[],"categories_sizes":[],"default_left":[0,0,0,0,0],"id":43,"left_children":[1,-1,3,-1,-1],"loss_changes":[2.311943E0,0E0,1.0528983E0,0E0,0E0],"parents":[2147483647,0,0,2,2],"right_children":[2,-1,4,-1,-1],"split_conditions":[1.5573047E0,-2.4420744E-2,1.4852144E-1,3.2633692E-2,2.77632E-3],"split_indices":[1,0,5,0,0],"split_type":[0,0,0,0,0],"sum_hessian":[8.515556E1,2.5831923E1,5.9323643E1,1.5243942E1,4.40797E1],"tree_param":{"num_deleted":"0","num_feature":"12","num_nodes":"5","size_leaf_vector":"1"}},{"base_weights":[-1.463529E-9,-3.872181E-2,6.597932E-2,4.1318834E-3,3.289106E-2,-8.509312E-2,2.1444908E-1,1.2365775E-2,-2.0801373E-2,-8.758969E-3,3.909878E-2],"categories":[],"categories_nodes":[],"categories_segments":[],"categories_sizes":[],"default_left":[0,0,0,0,0,0,0,0,0,0,0],"id":44,"left_children":[1,-1,3,5,-1,7,9,-1,-1,-1,-1],"loss_changes":[2.201048E0,0E0,1.1956519E0,1.1555316E0,0E0,1.1359785E0,1.0119779E0,0E0,0E0,0E0,0E0],"parents":[2147483647,0,0,2,2,3,3,5,5,6,6],"right_children":[2,-1,4,6,-1,8,10,-1,-1,-1,-1],"split_conditions":[1.1578809E0,-3.872181E-2,2.1288435E0,1.2399199E-1,3.289106E-2,5.3217435E-1,2.3205048E-1,1.2365775E-2,-2.0801373E-2,-8.758969E-3,3.909878E-2],"split_indices":[1,0,1,2,0,5,3,0,0,0,0],"split_type":[0,0,0,0,0,0,0,0,0,0,0],"sum_hessian":[8.415212E1,1.1542566E1,7.260956E1,5.960485E1,1.3004707E1,4.2268333E1,1.733652E1,1.5662824E1,2.6605509E1,6.580995E0,1.0755524E1],"tree_param":{"num_deleted":"0","num_feature":"12","num_nodes":"11","size_leaf_vector":"1"}},{"base_weights":[-4.72866E-9,-1.4997248E-1,1.674998E-2,1.1774122E-2,-2.5118405E-2],"categories":[],"categories_nodes":[],"categories_segments":[],"categories_sizes":[],"default_left":[0,0,0,0,0],"id":45,"left_children":[1,3,-1,-1,-1],"loss_changes":[2.10424E0,1.2270837E0,0E0,0E0,0E0],"parents":[2147483647,0,0,1,1],"right_children":[2,4,-1,-1,-1],"split_conditions":[1.8329767E0,1E0,1.674998E-2,1.1774122E-2,-2.5118405E-2],"split_indices":[1,6,0,0,0],"split_type":[0,0,0,0,0],"sum_hessian":[8.176631E1,4.3195484E1,3.8570827E1,1.1805515E1,3.1389967E1],"tree_param":{"num_deleted":"0","num_feature":"12","num_nodes":"5","size_leaf_vector":"1"}},{"base_weights":[-5.6633884E-9,-3.80076E-2,6.4213105E-2,2.5830885E-2,-1.358018E-2,1.1433768E-2,-1.7452119E-2],"categories":[],"categories_nodes":[],"categories_segments":[],"categories_sizes":[],"default_left":[0,0,0,0,0,0,0],"id":46,"left_children":[1,-1,3,-1,5,-1,-1],"loss_changes":[2.0189655E0,0E0,1.0720649E0,0E0,1.0795813E0,0E0,0E0],"parents":[2147483647,0,0,2,2,4,4],"right_children":[2,-1,4,-1,6,-1,-1],"split_conditions":[1.1578809E0,-3.80076E-2,1.4852144E-1,2.5830885E-2,5.3722185E-1,1.1433768E-2,-1.7452119E-2],"split_indices":[1,0,5,0,4,0,0],"split_type":[0,0,0,0,0,0,0],"sum_hessian":[8.072461E1,1.0956188E1,6.9768425E1,1.929831E1,5.0470116E1,2.8281334E1,2.218878E1],"tree_param":{"num_deleted":"0","num_feature":"12","num_nodes":"7","size_leaf_vector":"1"}},{"base_weights":[-5.0330295E-9,-2.3449397E-2,1.0125611E-2],"categories":[],"categories_nodes":[],"categories_segments":[],"categories_sizes":[],"default_left":[0,0,0],"id":47,"left_children":[1,-1,-1],"loss_changes":[1.9352479E0,0E0,0E0],"parents":[2147483647,0,0],"right_children":[2,-1,-1],"split_conditions":[1.5573047E0,-2.3449397E-2,1.0125611E-2],"split_indices":[1,0,0],"split_type":[0,0,0],"sum_hessian":[7.95049E1,2.3580395E1,5.59245E1],"tree_param":{"num_deleted":"0","num_feature":"12","num_nodes":"3","size_leaf_vector":"1"}},{"base_weights":[-3.8246735E-9,-1.6017962E-2,1.3799402E-2],"categories":[],"categories_nodes":[],"categories_segments":[],"categories_sizes":[],"default_left":[0,0,0],"id":48,"left_children":[1,-1,-1],"loss_changes":[1.7876883E0,0E0,0E0],"parents":[2147483647,0,0],"right_children":[2,-1,-1],"split_conditions":[1.557371E0,-1.6017962E-2,1.3799402E-2],"split_indices":[0,0,0],"split_type":[0,0,0],"sum_hessian":[7.887686E1,3.642961E1,4.244725E1],"tree_param":{"num_deleted":"0","num_feature":"12","num_nodes":"3","size_leaf_vector":"1"}},{"base_weights":[-4.8619206E-9,2.3827124E-2,-8.7875225E-2,-3.2633986E-2,3.8530973E-3],"categories":[],"categories_nodes":[],"categories_segments":[],"categories_sizes":[],"default_left":[0,0,0,0,0],"id":49,"left_children":[1,-1,3,-1,-1],"loss_changes":[1.6823468E0,0E0,1.7819855E0,0E0,0E0],"parents":[2147483647,0,0,2,2],"right_children":[2,-1,4,-1,-1],"split_conditions":[1.4852144E-1,2.3827124E-2,1.6510357E0,-3.2633986E-2,3.8530973E-3],"split_indices":[5,0,1,0,0],"split_type":[0,0,0,0,0],"sum_hessian":[7.834844E1,2.064867E1,5.769977E1,1.9441607E1,3.8258167E1],"tree_param":{"num_deleted":"0","num_feature":"12","num_nodes":"5","size_leaf_vector":"1"}},{"base_weights":[-9.433317E-10,-3.6297467E-2,5.7805248E-2,-1.0017655E-2,1.6250521E-2],"categories":[],"categories_nodes":[],"categories_segments":[],"categories_sizes":[],"default_left":[0,0,0,0,0],"id":50,"left_children":[1,-1,3,-1,-1],"loss_changes":[1.66226E0,0E0,1.146674E0,0E0,0E0],"parents":[2147483647,0,0,2,2],"right_children":[2,-1,4,-1,-1],"split_conditions":[1.1578809E0,-3.6297467E-2,8.04891E-2,-1.0017655E-2,1.6250521E-2],"split_indices":[1,0,2,0,0],"split_type":[0,0,0,0,0],"sum_hessian":[7.722375E1,9.883476E0,6.734027E1,2.6857773E1,4.04825E1],"tree_param":{"num_deleted":"0","num_feature":"12","num_nodes":"5","size_leaf_vector":"1"}},{"base_weights":[-5.0830185E-9,-1.0550487E-1,2.0632092E-2,1.228912E-2,-2.0469308E-2],"categories":[],"categories_nodes":[],"categories_segments":[],"categories_sizes":[],"default_left":[0,0,0,0,0],"id":51,"left_children":[1,3,-1,-1,-1],"loss_changes":[1.6994958E0,1.1954201E0,0E0,0E0,0E0],"parents":[2147483647,0,0,1,1],"right_children":[2,4,-1,-1,-1],"split_conditions":[1.9602928E0,1E0,2.0632092E-2,1.228912E-2,-2.0469308E-2],"split_indices":[1,6,0,0,0],"split_type":[0,0,0,0,0],"sum_hessian":[7.607363E1,5.0657764E1,2.5415865E1,1.5266148E1,3.5391617E1],"tree_param":{"num_deleted":"0","num_feature":"12","num_nodes":"5","size_leaf_vector":"1"}},{"base_weights":[3.3390937E-9,-3.1868145E-2,6.246426E-2,2.800003E-2,-1.1228843E-3],"categories":[],"categories_nodes":[],"categories_segments":[],"categories_sizes":[],"default_left":[0,0,0,0,0],"id":52,"left_children":[1,-1,3,-1,-1],"loss_changes":[1.5350748E0,0E0,1.0367738E0,0E0,0E0],"parents":[2147483647,0,0,2,2],"right_children":[2,-1,4,-1,-1],"split_conditions":[1.3098574E0,-3.1868145E-2,2.6680687E-1,2.800003E-2,-1.1228843E-3],"split_indices":[1,0,4,0,0],"split_type":[0,0,0,0,0],"sum_hessian":[7.511541E1,1.1638097E1,6.347731E1,1.5354001E1,4.812331E1],"tree_param":{"num_deleted":"0","num_feature":"12","num_nodes":"5","size_leaf_vector":"1"}},{"base_weights":[-4.0362647E-9,-1.3516381E-1,1.4491429E-2,-2.399321E-2,1.3355428E-2],"categories":[],"categories_nodes":[],"categories_segments":[],"categories_sizes":[],"default_left":[0,0,0,0,0],"id":53,"left_children":[1,3,-1,-1,-1],"loss_changes":[1.4948568E0,1.1437416E0,0E0,0E0,0E0],"parents":[2147483647,0,0,1,1],"right_children":[2,4,-1,-1,-1],"split_conditions":[1.8329767E0,1.2399199E-1,1.4491429E-2,-2.399321E-2,1.3355428E-2],"split_indices":[1,2,0,0,0],"split_type":[0,0,0,0,0],"sum_hessian":[7.431817E1,3.8487534E1,3.583064E1,2.7768303E1,1.0719231E1],"tree_param":{"num_deleted":"0","num_feature":"12","num_nodes":"5","size_leaf_vector":"1"}},{"base_weights":[1.9146014E-10,2.344527E-2,-8.7467045E-2,-3.0898795E-2,2.4125634E-3],"categories":[],"categories_nodes":[],"categories_segments":[],"categories_sizes":[],"default_left":[0,0,0,0,0],"id":54,"left_children":[1,-1,3,-1,-1],"loss_changes":[1.5479586E0,0E0,1.3664491E0,0E0,0E0],"parents":[2147483647,0,0,2,2],"right_children":[2,-1,4,-1,-1],"split_conditions":[1.4852144E-1,2.344527E-2,1.6510357E0,-3.0898795E-2,2.4125634E-3],"split_indices":[5,0,1,0,0],"split_type":[0,0,0,0,0],"sum_hessian":[7.348483E1,1.9509571E1,5.3975266E1,1.7489077E1,3.6486187E1],"tree_param":{"num_deleted":"0","num_feature":"12","num_nodes":"5","size_leaf_vector":"1"}},{"base_weights":[1.6092548E-9,-3.4771636E-2,5.2143123E-2,-1.5386988E-2,1.2766393E-2],"categories":[],"categories_nodes":[],"categories_segments":[],"categories_sizes":[],"default_left":[0,0,0,0,0],"id":55,"left_children":[1,-1,3,-1,-1],"loss_changes":[1.351227E0,0E0,1.0279328E0,0E0,0E0],"parents":[2147483647,0,0,2,2],"right_children":[2,-1,4,-1,-1],"split_conditions":[1.1578809E0,-3.4771636E-2,5.8261745E-2,-1.5386988E-2,1.2766393E-2],"split_indices":[1,0,2,0,0],"split_type":[0,0,0,0,0],"sum_hessian":[7.252572E1,8.718423E0,6.3807297E1,1.683787E1,4.696943E1],"tree_param":{"num_deleted":"0","num_feature":"12","num_nodes":"5","size_leaf_vector":"1"}},{"base_weights":[-1.8407108E-9,2.2173496E-2,-8.311006E-2,-2.9811887E-2,2.227822E-3],"categories":[],"categories_nodes":[],"categories_segments":[],"categories_sizes":[],"default_left":[0,0,0,0,0],"id":56,"left_children":[1,-1,3,-1,-1],"loss_changes":[1.3577337E0,0E0,1.2209542E0,0E0,0E0],"parents":[2147483647,0,0,2,2],"right_children":[2,-1,4,-1,-1],"split_conditions":[1.4852144E-1,2.2173496E-2,1.6510357E0,-2.9811887E-2,2.227822E-3],"split_indices":[5,0,1,0,0],"split_type":[0,0,0,0,0],"sum_hessian":[7.167614E1,1.9086365E1,5.2589775E1,1.6696829E1,3.589295E1],"tree_param":{"num_deleted":"0","num_feature":"12","num_nodes":"5","size_leaf_vector":"1"}},{"base_weights":[-2.5659928E-9,-9.827534E-3,1.8771864E-2],"categories":[],"categories_nodes":[],"categories_segments":[],"categories_sizes":[],"default_left":[0,0,0],"id":57,"left_children":[1,-1,-1],"loss_changes":[1.3451666E0,0E0,0E0],"parents":[2147483647,0,0],"right_children":[2,-1,-1],"split_conditions":[1.9602928E0,-9.827534E-3,1.8771864E-2],"split_indices":[1,0,0],"split_type":[0,0,0],"sum_hessian":[7.0916214E1,4.6860214E1,2.4056E1],"tree_param":{"num_deleted":"0","num_feature":"12","num_nodes":"3","size_leaf_vector":"1"}},{"base_weights":[-1.3276131E-9,2.1873726E-2,-8.1423216E-2,-3.4862034E-2,-3.8621534E-4],"categories":[],"categories_nodes":[],"categories_segments":[],"categories_sizes":[],"default_left":[0,0,0,0,0],"id":58,"left_children":[1,-1,3,-1,-1],"loss_changes":[1.2895327E0,0E0,1.0921216E0,0E0,0E0],"parents":[2147483647,0,0,2,2],"right_children":[2,-1,4,-1,-1],"split_conditions":[1.4852144E-1,2.1873726E-2,1.4394804E0,-3.4862034E-2,-3.8621534E-4],"split_indices":[5,0,1,0,0],"split_type":[0,0,0,0,0],"sum_hessian":[7.040381E1,1.8640663E1,5.1763145E1,1.0859047E1,4.09041E1],"tree_param":{"num_deleted":"0","num_feature":"12","num_nodes":"5","size_leaf_vector":"1"}},{"base_weights":[2.7541682E-9,-5.819364E-2,2.8227864E-2,-1.470819E-1,1.6655073E-2,-1.8975195E-3,-3.4760706E-2],"categories":[],"categories_nodes":[],"categories_segments":[],"categories_sizes":[],"default_left":[0,0,0,0,0,0,0],"id":59,"left_children":[1,3,-1,5,-1,-1,-1],"loss_changes":[1.178017E0,1.2122532E0,0E0,1.1015126E0,0E0,0E0,0E0],"parents":[2147483647,0,0,1,1,3,3],"right_children":[2,4,-1,6,-1,-1,-1],"split_conditions":[2.1288435E0,1.2399199E-1,2.8227864E-2,5.7406485E-1,1.6655073E-2,-1.8975195E-3,-3.4760706E-2],"split_indices":[1,2,0,4,0,0,0],"split_type":[0,0,0,0,0,0,0],"sum_hessian":[6.971302E1,5.8455803E1,1.1257215E1,4.213616E1,1.6319643E1,2.6378637E1,1.57575245E1],"tree_param":{"num_deleted":"0","num_feature":"12","num_nodes":"7","size_leaf_vector":"1"}},{"base_weights":[4.555309E-9,2.2078143E-2,-8.086012E-2,-2.9532818E-2,2.2346543E-3],"categories":[],"categories_nodes":[],"categories_segments":[],"categories_sizes":[],"default_left":[0,0,0,0,0],"id":60,"left_children":[1,-1,3,-1,-1],"loss_changes":[1.2584429E0,0E0,1.1486316E0,0E0,0E0],"parents":[2147483647,0,0,2,2],"right_children":[2,-1,4,-1,-1],"split_conditions":[1.4852144E-1,2.2078143E-2,7.10954E-2,-2.9532818E-2,2.2346543E-3],"split_indices":[5,0,2,0,0],"split_type":[0,0,0,0,0],"sum_hessian":[6.849146E1,1.7896431E1,5.059503E1,1.583262E1,3.476241E1],"tree_param":{"num_deleted":"0","num_feature":"12","num_nodes":"5","size_leaf_vector":"1"}},{"base_weights":[4.2583443E-9,-9.40531E-3,1.8529711E-2],"categories":[],"categories_nodes":[],"categories_segments":[],"categories_sizes":[],"default_left":[0,0,0],"id":61,"left_children":[1,-1,-1],"loss_changes":[1.2193152E0,0E0,0E0],"parents":[2147483647,0,0],"right_children":[2,-1,-1],"split_conditions":[1.9760103E0,-9.40531E-3,1.8529711E-2],"split_indices":[1,0,0],"split_type":[0,0,0],"sum_hessian":[6.796394E1,4.540811E1,2.2555828E1],"tree_param":{"num_deleted":"0","num_feature":"12","num_nodes":"3","size_leaf_vector":"1"}},{"base_weights":[-1.0854159E-10,2.168413E-2,-8.027605E-2,-2.8632069E-2,1.6038399E-3],"categories":[],"categories_nodes":[],"categories_segments":[],"categories_sizes":[],"default_left":[0,0,0,0,0],"id":62,"left_children":[1,-1,3,-1,-1],"loss_changes":[1.2076132E0,0E0,1.0093619E0,0E0,0E0],"parents":[2147483647,0,0,2,2],"right_children":[2,-1,4,-1,-1],"split_conditions":[1.4852144E-1,2.168413E-2,1.6510357E0,-2.8632069E-2,1.6038399E-3],"split_indices":[5,0,1,0,0],"split_type":[0,0,0,0,0],"sum_hessian":[6.73745E1,1.7743807E1,4.9630688E1,1.5181109E1,3.444958E1],"tree_param":{"num_deleted":"0","num_feature":"12","num_nodes":"5","size_leaf_vector":"1"}},{"base_weights":[-8.278385E-10,-2.030834E-2,7.928747E-3],"categories":[],"categories_nodes":[],"categories_segments":[],"categories_sizes":[],"default_left":[0,0,0],"id":63,"left_children":[1,-1,-1],"loss_changes":[1.1080846E0,0E0,0E0],"parents":[2147483647,0,0],"right_children":[2,-1,-1],"split_conditions":[5.678434E-2,-2.030834E-2,7.928747E-3],"split_indices":[2,0,0],"split_type":[0,0,0],"sum_hessian":[6.681671E1,1.8323181E1,4.8493534E1],"tree_param":{"num_deleted":"0","num_feature":"12","num_nodes":"3","size_leaf_vector":"1"}},{"base_weights":[-2.5022409E-9,-1.2689491E-2,1.3060889E-2],"categories":[],"categories_nodes":[],"categories_segments":[],"categories_sizes":[],"default_left":[0,0,0],"id":64,"left_children":[1,-1,-1],"loss_changes":[1.1323707E0,0E0,0E0],"parents":[2147483647,0,0],"right_children":[2,-1,-1],"split_conditions":[1.8329767E0,-1.2689491E-2,1.3060889E-2],"split_indices":[1,0,0],"split_type":[0,0,0],"sum_hessian":[6.632375E1,3.3654594E1,3.266916E1],"tree_param":{"num_deleted":"0","num_feature":"12","num_nodes":"3","size_leaf_vector":"1"}},{"base_weights":[-3.916531E-9,2.1178463E-2,-7.875319E-3],"categories":[],"categories_nodes":[],"categories_segments":[],"categories_sizes":[],"default_left":[0,0,0],"id":65,"left_children":[1,-1,-1],"loss_changes":[1.1344306E0,0E0,0E0],"parents":[2147483647,0,0],"right_children":[2,-1,-1],"split_conditions":[1.4852144E-1,2.1178463E-2,-7.875319E-3],"split_indices":[5,0,0],"split_type":[0,0,0],"sum_hessian":[6.601668E1,1.74366E1,4.858008E1],"tree_param":{"num_deleted":"0","num_feature":"12","num_nodes":"3","size_leaf_vector":"1"}},{"base_weights":[-9.599987E-10,2.2303415E-2,-6.902523E-2,-1.2044313E-1,3.4570575E-2,-3.200866E-2,7.2253594E-4],"categories":[],"categories_nodes":[],"categories_segments":[],"categories_sizes":[],"default_left":[0,0,0,0,0,0,0],"id":66,"left_children":[1,-1,3,5,-1,-1,-1],"loss_changes":[1.042301E0,0E0,1.1441792E0,1.1936666E0,0E0,0E0,0E0],"parents":[2147483647,0,0,2,2,3,3],"right_children":[2,-1,4,6,-1,-1,-1],"split_conditions":[2.6680687E-1,2.2303415E-2,2.2544699E0,8.04891E-2,3.4570575E-2,-3.200866E-2,7.2253594E-4],"split_indices":[4,0,1,2,0,0,0],"split_type":[0,0,0,0,0,0,0],"sum_hessian":[6.570394E1,1.500113E1,5.0702812E1,4.5741425E1,4.961385E0,1.7253633E1,2.8487793E1],"tree_param":{"num_deleted":"0","num_feature":"12","num_nodes":"7","size_leaf_vector":"1"}},{"base_weights":[2.281317E-9,2.1251429E-2,-7.7748494E-3],"categories":[],"categories_nodes":[],"categories_segments":[],"categories_sizes":[],"default_left":[0,0,0],"id":67,"left_children":[1,-1,-1],"loss_changes":[1.0967026E0,0E0,0E0],"parents":[2147483647,0,0],"right_children":[2,-1,-1],"split_conditions":[1.4852144E-1,2.1251429E-2,-7.7748494E-3],"split_indices":[5,0,0],"split_type":[0,0,0],"sum_hessian":[6.437565E1,1.6779087E1,4.7596565E1],"tree_param":{"num_deleted":"0","num_feature":"12","num_nodes":"3","size_leaf_vector":"1"}},{"base_weights":[-3.6474979E-9,-1.4463297E-2,1.1450584E-2],"categories":[],"categories_nodes":[],"categories_segments":[],"categories_sizes":[],"default_left":[0,0,0],"id":68,"left_children":[1,-1,-1],"loss_changes":[1.0953914E0,0E0,0E0],"parents":[2147483647,0,0],"right_children":[2,-1,-1],"split_conditions":[1.7532597E0,-1.4463297E-2,1.1450584E-2],"split_indices":[1,0,0],"split_type":[0,0,0],"sum_hessian":[6.414155E1,2.8226013E1,3.5915535E1],"tree_param":{"num_deleted":"0","num_feature":"12","num_nodes":"3","size_leaf_vector":"1"}},{"base_weights":[2.5893698E-9,-3.295967E-2,4.652653E-3],"categories":[],"categories_nodes":[],"categories_segments":[],"categories_sizes":[],"default_left":[0,0,0],"id":69,"left_children":[1,-1,-1],"loss_changes":[1.0096008E0,0E0,0E0],"parents":[2147483647,0,0],"right_children":[2,-1,-1],"split_conditions":[1.1980958E0,-3.295967E-2,4.652653E-3],"split_indices":[1,0,0],"split_type":[0,0,0],"sum_hessian":[6.383641E1,7.143978E0,5.6692432E1],"tree_param":{"num_deleted":"0","num_feature":"12","num_nodes":"3","size_leaf_vector":"1"}},{"base_weights":[1.1471055E-9,2.0557493E-2,-7.506387E-3],"categories":[],"categories_nodes":[],"categories_segments":[],"categories_sizes":[],"default_left":[0,0,0],"id":70,"left_children":[1,-1,-1],"loss_changes":[1.0090952E0,0E0,0E0],"parents":[2147483647,0,0],"right_children":[2,-1,-1],"split_conditions":[1.4852144E-1,2.0557493E-2,-7.506387E-3],"split_indices":[5,0,0],"split_type":[0,0,0],"sum_hessian":[6.3392963E1,1.6490986E1,4.6901978E1],"tree_param":{"num_deleted":"0","num_feature":"12","num_nodes":"3","size_leaf_vector":"1"}},{"base_weights":[1.9361637E-9],"categories":[],"categories_nodes":[],"categories_segments":[],"categories_sizes":[],"default_left":[0],"id":71,"left_children":[-1],"loss_changes":[0E0],"parents":[2147483647],"right_children":[-1],"split_conditions":[1.9361637E-10],"split_indices":[0],"split_type":[0],"sum_hessian":[6.323797E1],"tree_param":{"num_deleted":"0","num_feature":"12","num_nodes":"1","size_leaf_vector":"1"}},{"base_weights":[1.9361637E-9],"categories":[],"categories_nodes":[],"categories_segments":[],"categories_sizes":[],"default_left":[0],"id":72,"left_children":[-1],"loss_changes":[0E0],"parents":[2147483647],"right_children":[-1],"split_conditions":[1.9361637E-10],"split_indices":[0],"split_type":[0],"sum_hessian":[6.323797E1],"tree_param":{"num_deleted":"0","num_feature":"12","num_nodes":"1","size_leaf_vector":"1"}},{"base_weights":[1.9361637E-9],"categories":[],"categories_nodes":[],"categories_segments":[],"categories_sizes":[],"default_left":[0],"id":73,"left_children":[-1],"loss_changes":[0E0],"parents":[2147483647],"right_children":[-1],"split_conditions":[1.9361637E-10],"split_indices":[0],"split_type":[0],"sum_hessian":[6.323797E1],"tree_param":{"num_deleted":"0","num_feature":"12","num_nodes":"1","size_leaf_vector":"1"}},{"base_weights":[1.9361637E-9],"categories":[],"categories_nodes":[],"categories_segments":[],"categories_sizes":[],"default_left":[0],"id":74,"left_children":[-1],"loss_changes":[0E0],"parents":[2147483647],"right_children":[-1],"split_conditions":[1.9361637E-10],"split_indices":[0],"split_type":[0],"sum_hessian":[6.323797E1],"tree_param":{"num_deleted":"0","num_feature":"12","num_nodes":"1","size_leaf_vector":"1"}},{"base_weights":[1.9361637E-9],"categories":[],"categories_nodes":[],"categories_segments":[],"categories_sizes":[],"default_left":[0],"id":75,"left_children":[-1],"loss_changes":[0E0],"parents":[2147483647],"right_children":[-1],"split_conditions":[1.9361637E-10],"split_indices":[0],"split_type":[0],"sum_hessian":[6.323797E1],"tree_param":{"num_deleted":"0","num_feature":"12","num_nodes":"1","size_leaf_vector":"1"}},{"base_weights":[1.9361637E-9],"categories":[],"categories_nodes":[],"categories_segments":[],"categories_sizes":[],"default_left":[0],"id":76,"left_children":[-1],"loss_changes":[0E0],"parents":[2147483647],"right_children":[-1],"split_conditions":[1.9361637E-10],"split_indices":[0],"split_type":[0],"sum_hessian":[6.323797E1],"tree_param":{"num_deleted":"0","num_feature":"12","num_nodes":"1","size_leaf_vector":"1"}},{"base_weights":[1.9361637E-9],"categories":[],"categories_nodes":[],"categories_segments":[],"categories_sizes":[],"default_left":[0],"id":77,"left_children":[-1],"loss_changes":[0E0],"parents":[2147483647],"right_children":[-1],"split_conditions":[1.9361637E-10],"split_indices":[0],"split_type":[0],"sum_hessian":[6.323797E1],"tree_param":{"num_deleted":"0","num_feature":"12","num_nodes":"1","size_leaf_vector":"1"}},{"base_weights":[1.9361637E-9],"categories":[],"categories_nodes":[],"categories_segments":[],"categories_sizes":[],"default_left":[0],"id":78,"left_children":[-1],"loss_changes":[0E0],"parents":[2147483647],"right_children":[-1],"split_conditions":[1.9361637E-10],"split_indices":[0],"split_type":[0],"sum_hessian":[6.323797E1],"tree_param":{"num_deleted":"0","num_feature":"12","num_nodes":"1","size_leaf_vector":"1"}},{"base_weights":[1.9361637E-9],"categories":[],"categories_nodes":[],"categories_segments":[],"categories_sizes":[],"default_left":[0],"id":79,"left_children":[-1],"loss_changes":[0E0],"parents":[2147483647],"right_children":[-1],"split_conditions":[1.9361637E-10],"split_indices":[0],"split_type":[0],"sum_hessian":[6.323797E1],"tree_param":{"num_deleted":"0","num_feature":"12","num_nodes":"1","size_leaf_vector":"1"}},{"base_weights":[1.9361637E-9],"categories":[],"categories_nodes":[],"categories_segments":[],"categories_sizes":[],"default_left":[0],"id":80,"left_children":[-1],"loss_changes":[0E0],"parents":[2147483647],"right_children":[-1],"split_conditions":[1.9361637E-10],"split_indices":[0],"split_type":[0],"sum_hessian":[6.323797E1],"tree_param":{"num_deleted":"0","num_feature":"12","num_nodes":"1","size_leaf_vector":"1"}},{"base_weights":[1.9361637E-9],"categories":[],"categories_nodes":[],"categories_segments":[],"categories_sizes":[],"default_left":[0],"id":81,"left_children":[-1],"loss_changes":[0E0],"parents":[2147483647],"right_children":[-1],"split_conditions":[1.9361637E-10],"split_indices":[0],"split_type":[0],"sum_hessian":[6.323797E1],"tree_param":{"num_deleted":"0","num_feature":"12","num_nodes":"1","size_leaf_vector":"1"}},{"base_weights":[1.9361637E-9],"categories":[],"categories_nodes":[],"categories_segments":[],"categories_sizes":[],"default_left":[0],"id":82,"left_children":[-1],"loss_changes":[0E0],"parents":[2147483647],"right_children":[-1],"split_conditions":[1.9361637E-10],"split_indices":[0],"split_type":[0],"sum_hessian":[6.323797E1],"tree_param":{"num_deleted":"0","num_feature":"12","num_nodes":"1","size_leaf_vector":"1"}},{"base_weights":[1.9361637E-9],"categories":[],"categories_nodes":[],"categories_segments":[],"categories_sizes":[],"default_left":[0],"id":83,"left_children":[-1],"loss_changes":[0E0],"parents":[2147483647],"right_children":[-1],"split_conditions":[1.9361637E-10],"split_indices":[0],"split_type":[0],"sum_hessian":[6.323797E1],"tree_param":{"num_deleted":"0","num_feature":"12","num_nodes":"1","size_leaf_vector":"1"}},{"base_weights":[1.9361637E-9],"categories":[],"categories_nodes":[],"categories_segments":[],"categories_sizes":[],"default_left":[0],"id":84,"left_children":[-1],"loss_changes":[0E0],"parents":[2147483647],"right_children":[-1],"split_conditions":[1.9361637E-10],"split_indices":[0],"split_type":[0],"sum_hessian":[6.323797E1],"tree_param":{"num_deleted":"0","num_feature":"12","num_nodes":"1","size_leaf_vector":"1"}},{"base_weights":[1.9361637E-9],"categories":[],"categories_nodes":[],"categories_segments":[],"categories_sizes":[],"default_left":[0],"id":85,"left_children":[-1],"loss_changes":[0E0],"parents":[2147483647],"right_children":[-1],"split_conditions":[1.9361637E-10],"split_indices":[0],"split_type":[0],"sum_hessian":[6.323797E1],"tree_param":{"num_deleted":"0","num_feature":"12","num_nodes":"1","size_leaf_vector":"1"}},{"base_weights":[1.9361637E-9],"categories":[],"categories_nodes":[],"categories_segments":[],"categories_sizes":[],"default_left":[0],"id":86,"left_children":[-1],"loss_changes":[0E0],"parents":[2147483647],"right_children":[-1],"split_conditions":[1.9361637E-10],"split_indices":[0],"split_type":[0],"sum_hessian":[6.323797E1],"tree_param":{"num_deleted":"0","num_feature":"12","num_nodes":"1","size_leaf_vector":"1"}},{"base_weights":[1.9361637E-9],"categories":[],"categories_nodes":[],"categories_segments":[],"categories_sizes":[],"default_left":[0],"id":87,"left_children":[-1],"loss_changes":[0E0],"parents":[2147483647],"right_children":[-1],"split_conditions":[1.9361637E-10],"split_indices":[0],"split_type":[0],"sum_hessian":[6.323797E1],"tree_param":{"num_deleted":"0","num_feature":"12","num_nodes":"1","size_leaf_vector":"1"}},{"base_weights":[1.9361637E-9],"categories":[],"categories_nodes":[],"categories_segments":[],"categories_sizes":[],"default_left":[0],"id":88,"left_children":[-1],"loss_changes":[0E0],"parents":[2147483647],"right_children":[-1],"split_conditions":[1.9361637E-10],"split_indices":[0],"split_type":[0],"sum_hessian":[6.323797E1],"tree_param":{"num_deleted":"0","num_feature":"12","num_nodes":"1","size_leaf_vector":"1"}},{"base_weights":[1.9361637E-9],"categories":[],"categories_nodes":[],"categories_segments":[],"categories_sizes":[],"default_left":[0],"id":89,"left_children":[-1],"loss_changes":[0E0],"parents":[2147483647],"right_children":[-1],"split_conditions":[1.9361637E-10],"split_indices":[0],"split_type":[0],"sum_hessian":[6.323797E1],"tree_param":{"num_deleted":"0","num_feature":"12","num_nodes":"1","size_leaf_vector":"1"}},{"base_weights":[1.9361637E-9],"categories":[],"categories_nodes":[],"categories_segments":[],"categories_sizes":[],"default_left":[0],"id":90,"left_children":[-1],"loss_changes":[0E0],"parents":[2147483647],"right_children":[-1],"split_conditions":[1.9361637E-10],"split_indices":[0],"split_type":[0],"sum_hessian":[6.323797E1],"tree_param":{"num_deleted":"0","num_feature":"12","num_nodes":"1","size_leaf_vector":"1"}},{"base_weights":[1.9361637E-9],"categories":[],"categories_nodes":[],"categories_segments":[],"categories_sizes":[],"default_left":[0],"id":91,"left_children":[-1],"loss_changes":[0E0],"parents":[2147483647],"right_children":[-1],"split_conditions":[1.9361637E-10],"split_indices":[0],"split_type":[0],"sum_hessian":[6.323797E1],"tree_param":{"num_deleted":"0","num_feature":"12","num_nodes":"1","size_leaf_vector":"1"}},{"base_weights":[1.9361637E-9],"categories":[],"categories_nodes":[],"categories_segments":[],"categories_sizes":[],"default_left":[0],"id":92,"left_children":[-1],"loss_changes":[0E0],"parents":[2147483647],"right_children":[-1],"split_conditions":[1.9361637E-10],"split_indices":[0],"split_type":[0],"sum_hessian":[6.323797E1],"tree_param":{"num_deleted":"0","num_feature":"12","num_nodes":"1","size_leaf_vector":"1"}},{"base_weights":[1.9361637E-9],"categories":[],"categories_nodes":[],"categories_segments":[],"categories_sizes":[],"default_left":[0],"id":93,"left_children":[-1],"loss_changes":[0E0],"parents":[2147483647],"right_children":[-1],"split_conditions":[1.9361637E-10],"split_indices":[0],"split_type":[0],"sum_hessian":[6.323797E1],"tree_param":{"num_deleted":"0","num_feature":"12","num_nodes":"1","size_leaf_vector":"1"}},{"base_weights":[1.9361637E-9],"categories":[],"categories_nodes":[],"categories_segments":[],"categories_sizes":[],"default_left":[0],"id":94,"left_children":[-1],"loss_changes":[0E0],"parents":[2147483647],"right_children":[-1],"split_conditions":[1.9361637E-10],"split_indices":[0],"split_type":[0],"sum_hessian":[6.323797E1],"tree_param":{"num_deleted":"0","num_feature":"12","num_nodes":"1","size_leaf_vector":"1"}},{"base_weights":[1.9361637E-9],"categories":[],"categories_nodes":[],"categories_segments":[],"categories_sizes":[],"default_left":[0],"id":95,"left_children":[-1],"loss_changes":[0E0],"parents":[2147483647],"right_children":[-1],"split_conditions":[1.9361637E-10],"split_indices":[0],"split_type":[0],"sum_hessian":[6.323797E1],"tree_param":{"num_deleted":"0","num_feature":"12","num_nodes":"1","size_leaf_vector":"1"}},{"base_weights":[1.9361637E-9],"categories":[],"categories_nodes":[],"categories_segments":[],"categories_sizes":[],"default_left":[0],"id":96,"left_children":[-1],"loss_changes":[0E0],"parents":[2147483647],"right_children":[-1],"split_conditions":[1.9361637E-10],"split_indices":[0],"split_type":[0],"sum_hessian":[6.323797E1],"tree_param":{"num_deleted":"0","num_feature":"12","num_nodes":"1","size_leaf_vector":"1"}},{"base_weights":[1.9361637E-9],"categories":[],"categories_nodes":[],"categories_segments":[],"categories_sizes":[],"default_left":[0],"id":97,"left_children":[-1],"loss_changes":[0E0],"parents":[2147483647],"right_children":[-1],"split_conditions":[1.9361637E-10],"split_indices":[0],"split_type":[0],"sum_hessian":[6.323797E1],"tree_param":{"num_deleted":"0","num_feature":"12","num_nodes":"1","size_leaf_vector":"1"}},{"base_weights":[1.9361637E-9],"categories":[],"categories_nodes":[],"categories_segments":[],"categories_sizes":[],"default_left":[0],"id":98,"left_children":[-1],"loss_changes":[0E0],"parents":[2147483647],"right_children":[-1],"split_conditions":[1.9361637E-10],"split_indices":[0],"split_type":[0],"sum_hessian":[6.323797E1],"tree_param":{"num_deleted":"0","num_feature":"12","num_nodes":"1","size_leaf_vector":"1"}},{"base_weights":[1.9361637E-9],"categories":[],"categories_nodes":[],"categories_segments":[],"categories_sizes":[],"default_left":[0],"id":99,"left_children":[-1],"loss_changes":[0E0],"parents":[2147483647],"right_children":[-1],"split_conditions":[1.9361637E-10],"split_indices":[0],"split_type":[0],"sum_hessian":[6.323797E1],"tree_param":{"num_deleted":"0","num_feature":"12","num_nodes":"1","size_leaf_vector":"1"}}]},"name":"gbtree"},"learner_model_param":{"base_score":"[-2.925964E-9]","boost_from_average":"1","num_class":"0","num_feature":"12","num_target":"1"},"objective":{"lambdarank_param":{"lambdarank_bias_norm":"1","lambdarank_normalization":"1","lambdarank_num_pair_per_sample":"4294967295","lambdarank_pair_method":"topk","lambdarank_score_normalization":"1","lambdarank_unbiased":"0","ndcg_exp_gain":"1"},"name":"rank:ndcg"}},"version":[3,1,3]}